svm_type c_svc
kernel_type rbf
gamma 1
nr_class 18
total_sv 545
rho 0.00417948 18.8336 15.214 -0.0200416 -0.141599 2.77556e-017 -1.47075 -15.404 0.825644 0.0197946 -1.40742 0 -0.468295 -0.0627745 -0.00683036 -0.468344 1.21448 3.06045 0.227803 0.188455 0.25003 -0.0026844 -0.00243603 0.00236618 0.0139089 0.0417448 -0.0012492 -0.0261904 -0.0303721 -0.000475491 0.000220807 0.00265585 0.828352 -14.0452 -5.14552 -7.25277 -3.76917 -22.4664 -23.2915 -229.226 0.278782 -13.3312 -0.42634 -7.28296 -0.550024 -0.655436 -14.1721 -1.32575 0.219514 0.212222 -0.688879 -1.55457 -2.15015 -26.9937 0.360557 -1.60047 -0.203552 -6.12698 -0.269266 -0.224569 0.157054 -5.44006 28.5844 -0.259828 -0.345573 -0.116254 0.451194 0.0509622 -0.580757 -0.145605 -0.633201 -0.299467 -0.241039 -0.391521 0.741679 -0.253702 0.875805 -0.328254 0.573707 0.0665863 -0.197935 -0.201084 0.0372492 -0.180779 -0.281595 -0.913627 0.698497 0.158717 0.0176363 0.3096 0.0772406 0.000667045 -0.019498 7.1991e-017 -0.00139247 0.022894 0.146409 1.03567 1.01615 3.36687 1.86551 -4.60895 -0.000249755 -0.0752766 -0.103855 -0.134476 3.04162 0.870043 14.4776 0.444804 -181.959 3.30291e-015 -0.93377 -0.181887 -0.190253 0.204698 119.973 0.929175 -5.80595 0 -0.946645 -0.292072 -0.266699 -0.824332 -120.326 -1.00091 -0.7404 -0.0619527 3.33067e-016 -4.33681e-017 28.9974 0.757245 5.55112e-017 -0.00813905 -0.05846 -1.43115e-016 2.24037 0.902272 4.16334e-017 -6.00648e-017 0.0493698 -7.40149e-017 0.832576 0.00149815 0.0361424 0.205151 0.892901 -6.04262e-005 0.31343 0.789177 -7.25114e-016 0.774204 0.728564
label 0 1 2 3 4 5 6 7 8 9 10 11 12 13 14 15 16 17
nr_sv 28 8 85 39 29 29 9 26 45 72 12 31 3 15 7 5 32 70
SV
0 0 0 0 0.8306402823704779 0 0 0 0 0 0 0 0 0 0 0 0 1:0.87955 2:0.157808 3:-0.156443 4:0.179419 5:-0.177867 6:0.004134 7:0.000695 8:0.865204 9:0.159675 10:-0.150999 11:0.184552 12:-0.174524 13:0.00636 14:0.000846 15:0.852797 16:0.160782 17:-0.146589 18:0.188534 19:-0.171893 20:0.007882 21:0.001781 
0 98.92217547815366 0 0 0 0 0 0 0 0 0 0 0 0 0 0 0 1:0.872611 2:0.164247 3:-0.157551 4:0.188225 5:-0.180552 6:0.001783 7:0.001146 8:0.866426 9:0.163562 10:-0.154461 11:0.188778 12:-0.178274 13:0.001751 14:0.002173 15:0.866575 16:0.162191 17:-0.153554 18:0.187163 19:-0.177197 20:0.002688 21:0.003331 
0 0 0 0 0 0 6.441616513495045 0 0 0 6.507653494188788 0 0 0 0 0 0 1:0.821989 2:0.157539 3:-0.128834 4:0.191656 5:-0.156735 6:0.00283 7:0.001992 8:0.819688 9:0.15804 10:-0.128113 11:0.192805 12:-0.156294 13:0.003532 14:0.001938 15:0.815062 16:0.160044 17:-0.127657 18:0.196358 19:-0.156622 20:0.002781 21:0.002802 
0 0 347.4300756667294 0 0 0 0 0 0 0 0 0 0 0 0 0 0 1:0.808263 2:0.169259 3:-0.130967 4:0.209411 5:-0.162035 6:0.005268 7:0.001817 8:0.796007 9:0.16997 10:-0.128055 11:0.213529 12:-0.160871 13:0.007878 14:0.001873 15:0.796146 16:0.169265 17:-0.127947 18:0.212606 19:-0.160708 20:0.008231 21:0.001502 
0 0 586.2640945957236 0 0 0 0 0 0 0 0 0 0 0 0 0 0 1:0.796525 2:0.172966 3:-0.129673 4:0.217151 5:-0.162798 6:0.006368 7:0.001727 8:0.788187 9:0.170945 10:-0.126788 11:0.216884 12:-0.16086 13:0.007968 14:0.002536 15:0.791965 16:0.169023 17:-0.126617 18:0.213422 19:-0.159878 20:0.007661 21:0.00274 
0 0 0 0 3.018590325271426 0 0 0 0 0 0 0 0 0 0 0 0 1:0.777489 2:0.175134 3:-0.127264 4:0.225256 5:-0.163685 6:0.007476 7:0.000183 8:0.781296 9:0.173031 10:-0.126806 11:0.221467 12:-0.162302 13:0.006728 14:0.001568 15:0.790125 16:0.17054 17:-0.127141 18:0.215839 19:-0.160912 20:0.004996 21:0.002668 
0 0 0 0 0 0 0 0 0 0 0 0 0 0 0 0 135.2454576853667 1:0.792941 2:0.164086 3:-0.12146 4:0.206934 5:-0.153176 6:0.002865 7:0.001531 8:0.786056 9:0.164557 10:-0.120904 11:0.209345 12:-0.153811 13:0.005358 14:0.002254 15:0.789776 16:0.16488 17:-0.122819 18:0.208769 19:-0.155511 20:0.006722 21:0.002867 
0 98.76087202736089 0 0 0 0 0 0 0 0 0 0 0 0 0 0 0 1:0.802155 2:0.176649 3:-0.132638 4:0.220219 5:-0.165352 6:0.002488 7:0.001853 8:0.804083 9:0.173918 10:-0.132295 11:0.216294 12:-0.164529 13:0.004238 14:0.002817 15:0.804798 16:0.171282 17:-0.131463 18:0.212827 19:-0.16335 20:0.005487 21:0.003064 
0 15.71315014310493 0 0 0 0 0 0 0 0 0 0 44.116892645268 0 0 0 0 1:0.78432 2:0.176915 3:-0.128651 4:0.225565 5:-0.164028 6:0.002718 7:0.001115 8:0.791658 9:0.174735 10:-0.12982 11:0.22072 12:-0.163985 13:0.002865 14:0.002035 15:0.797178 16:0.172186 17:-0.129976 18:0.215994 19:-0.163046 20:0.002678 21:0.002549 
0 0 0 0 0 0 0 0 0 0 0 0 0 0 0 0 42.81451584106559 1:0.774232 2:0.162662 3:-0.116763 4:0.210094 5:-0.150812 6:0.003184 7:0.00132 8:0.779672 9:0.16329 10:-0.118615 11:0.209435 12:-0.152135 13:0.003764 14:0.000866 15:0.788236 16:0.163921 17:-0.12167 18:0.20796 19:-0.154357 20:0.004511 21:0.001869 
0 0 14.50028998731859 0 0 0 0 0 0 0 0 0 0 0 0 0 0 1:0.803284 2:0.175793 3:-0.133533 4:0.218842 5:-0.166234 6:0.006295 7:0.001916 8:0.801274 9:0.174479 10:-0.132496 11:0.217751 12:-0.165356 13:0.005137 14:0.001895 15:0.802217 16:0.172028 17:-0.131523 18:0.214441 19:-0.163949 20:0.005361 21:0.00256 
0 0 0 0 0 1.866773692015125 0 0 0 0 0 0 0 0 0 0 0 1:0.754862 2:0.174696 3:-0.123177 4:0.231427 5:-0.163178 6:0.002895 7:0.000746 8:0.773423 9:0.173214 10:-0.125369 11:0.223958 12:-0.162096 13:0.002417 14:0.001771 15:0.788641 16:0.170585 17:-0.126994 18:0.216303 19:-0.161029 20:0.002686 21:0.003409 
0 0 0 0 0 0 10.20130508500364 0 57.00721773891713 0 20.77768517879599 0 0 0.7182156192985295 0 4.162130889985368 0 1:0.764426 2:0.162428 3:-0.114853 4:0.212484 5:-0.150247 6:0.002346 7:0.000123 8:0.774802 9:0.163207 10:-0.117594 11:0.210643 12:-0.151773 13:0.002601 14:0.000357 15:0.787775 16:0.163541 17:-0.121327 18:0.207599 19:-0.154012 20:0.002394 21:0.001291 
0 67.24000257490638 0 0 0 0 0 0 0 0 0 0 0 0 0 0 0 1:0.820726 2:0.172566 3:-0.138534 4:0.21026 5:-0.168794 6:0.004845 7:0.001141 8:0.810967 9:0.173331 10:-0.135038 11:0.213734 12:-0.166515 13:0.005436 14:0.001224 15:0.808497 16:0.171249 17:-0.133223 18:0.211812 19:-0.164779 20:0.007599 21:0.002277 
1.202595283635786 0 0 0 0 0 0 0 0 0 0 0 0 0 0.8614006547575891 0 0 1:0.762149 2:0.163303 3:-0.114889 4:0.214266 5:-0.150743 6:0.000214 7:0.001022 8:0.77424 9:0.163625 10:-0.118008 11:0.211336 12:-0.152418 13:0.000404 14:0.001982 15:0.78785 16:0.164027 17:-0.121898 18:0.208195 19:-0.154722 20:0.001653 21:0.002431 
0 7.062369234958391 0 0 0 0 0 0 0 0 0 0 0 0 0 0 0 1:0.825711 2:0.17114 3:-0.139861 4:0.207264 5:-0.169382 6:0.000774 7:0.000711 8:0.817409 9:0.17187 10:-0.136555 11:0.210261 12:-0.167059 13:0.004617 14:0.000388 15:0.815033 16:0.169928 17:-0.134825 18:0.208492 19:-0.165422 20:0.008984 21:0.001767 
0 0 0 0 0 0 0 262.8303980815126 0 0 0 0 0 0 0 0 0 1:0.977755 2:0.128334 3:-0.183175 4:0.131254 5:-0.187342 6:0.003469 7:0.000909 8:0.982542 9:0.121409 10:-0.18077 11:0.123567 12:-0.183982 13:0.002458 14:0.001823 15:0.976449 16:0.121177 17:-0.178146 18:0.124099 19:-0.182443 20:0.00586 21:0.00258 
0 0 0 1.466245080152919 0 0 0 0 0 0 0 0 0 0 0 0 0 1:0.96417 2:0.142005 3:-0.186021 4:0.147282 5:-0.192934 6:0.006113 7:0.001857 8:0.968688 9:0.13718 10:-0.184874 11:0.141614 12:-0.19085 13:0.006389 14:0.001712 15:0.96884 16:0.131983 17:-0.181918 18:0.136227 19:-0.187769 20:0.005272 21:0.00129 
0 668.7381795035751 0 0 0 0 24.815239891073 2693.626657481838 122.1335027971782 0 13.30402454201988 0 0 0 0 5.234531210136164 0 1:0.990165 2:0.106728 3:-0.174379 4:0.107788 5:-0.176111 6:0.003704 7:0.001217 8:0.991184 9:0.111086 10:-0.177825 11:0.112074 12:-0.179406 13:0.002905 14:0.000719 15:0.980193 16:0.117382 17:-0.177453 18:0.119754 19:-0.181039 20:0.004466 21:0.001856 
0 0 0 10.53827559277647 0 0 0 0 0 0 0 0 0 0 0 0 0 1:0.973242 2:0.133153 3:-0.184313 4:0.136814 5:-0.189381 6:0.008648 7:0.002429 8:0.971767 9:0.134297 10:-0.184359 11:0.138198 12:-0.189715 13:0.007437 14:0.00233 15:0.970788 16:0.131684 17:-0.182597 18:0.135646 19:-0.188091 20:0.004829 21:0.000434 
0 0 0 0 0 0 0 0 0 0 0 0 0 0 0 2.95294535699843 0 1:0.996832 2:0.10496 3:-0.176344 4:0.105294 5:-0.176904 6:0.00688 7:0.001697 8:0.992637 9:0.110859 10:-0.178328 11:0.111681 12:-0.17965 13:0.002724 14:0.001199 15:0.983335 16:0.116667 17:-0.178341 18:0.118644 19:-0.181363 20:0.003073 21:0.001671 
0.1437580962657092 0 0 0 0 0 0 0 0 77.69267518478473 0 35.21628866195776 0 0.6944625049780747 0.422848706273973 0 0 1:1.004393 2:0.102225 3:-0.178073 4:0.101777 5:-0.177294 6:0.005706 7:0.002308 8:0.992567 9:0.112421 10:-0.179371 11:0.113263 12:-0.180714 13:0.00556 14:0.002364 15:0.985738 16:0.117029 17:-0.179597 18:0.118723 19:-0.182196 20:0.002407 21:0.001773 
0 0 0 3.23289700817292 0 0 0 0 0 0 0 0 0 0 0 0 0 1:0.984732 2:0.122907 3:-0.1828 4:0.124812 5:-0.185634 6:0.002044 7:0.000656 8:0.977957 9:0.128756 10:-0.183571 11:0.131658 12:-0.187708 13:0.003028 14:0.000867 15:0.975884 16:0.129675 17:-0.183387 18:0.132879 19:-0.187919 20:0.004105 21:0.000573 
0 0 0 0 0 0 0 1183.368532174336 0 0 0 0 0 0 0 0 0 1:0.888034 2:0.148881 3:-0.156979 4:0.167652 5:-0.176772 6:0.006788 7:0.004653 8:0.884954 9:0.14888 10:-0.15618 11:0.168235 12:-0.176484 13:0.003988 14:0.004489 15:0.894422 16:0.147708 17:-0.158994 18:0.165144 19:-0.177762 20:0.00373 21:0.004168 
0 0 0 0 0 0 0 28.10439876351023 0 0 0 0 0 0 0 0 0 1:0.908925 2:0.147941 3:-0.164113 4:0.162765 5:-0.180557 6:0.003132 7:0.003032 8:0.896424 9:0.148915 10:-0.16033 11:0.166122 12:-0.178855 13:0.003772 14:0.004498 15:0.897114 16:0.148792 17:-0.160579 18:0.165857 19:-0.178995 20:0.00145 21:0.004026 
0 749.2087335210324 0 0 0 0 0 0 0 0 0 0 9.110278993804014 0 0 0 0 1:0.917042 2:0.166099 3:-0.179976 4:0.181125 5:-0.196257 6:0.001452 7:0.001067 8:0.917362 9:0.164575 10:-0.17909 11:0.179401 12:-0.195223 13:0.000139 14:0.000636 15:0.918478 16:0.162066 17:-0.177951 18:0.176451 19:-0.193745 20:0.001929 21:0.00134 
0 0 0 0 26.72783844824161 0 0 0 0 0 0 0 0 0 0 0 0 1:0.920845 2:0.163852 3:-0.180258 4:0.177937 5:-0.195752 6:0.000369 7:0.00022 8:0.919788 9:0.163486 10:-0.179501 11:0.177743 12:-0.195154 13:0.000789 14:0.000833 15:0.918984 16:0.162119 17:-0.178442 18:0.176411 19:-0.194173 20:0.002001 21:0.001514 
0 0 0 39.27921528069241 0 0 0 0 0 0 0 0 0 0 0 0 0 1:0.930293 2:0.160241 3:-0.182299 4:0.172248 5:-0.195959 6:0.003191 7:0.000242 8:0.929557 9:0.159816 10:-0.181922 11:0.171927 12:-0.195708 13:0.00342 14:0.000305 15:0.930273 16:0.156878 17:-0.180249 18:0.168636 19:-0.19376 20:0.009425 21:0.002715 
0 0 0 0 0 1.595089929006998 0 0 0 0 0 0 0 0 0 0 4.052772596709461 1:0.050386 2:0.009053 3:-0.004721 4:0.179672 5:-0.093689 6:0.011356 7:0.006989 8:0.05003 9:0.008097 10:-0.004558 11:0.16185 12:-0.091101 13:0.02028 14:0.01346 15:0.051669 16:0.006668 17:-0.004638 18:0.129056 19:-0.089773 20:0.016669 21:0.01407 
0 0 0 0 0 0 0 0 0 0 0 0 0 0.04446039095552707 2.239258484154068 0 0 1:0.113626 2:-0.006832 3:-0.009619 4:-0.060125 5:-0.084659 6:0.010275 7:0.003188 8:0.107115 9:-0.00411 10:-0.009657 11:-0.038365 12:-0.090155 13:0.025993 14:0.008374 15:0.098533 16:-0.001822 17:-0.009134 18:-0.018492 19:-0.092699 20:0.029434 21:0.007403 
0 0 0 0 0 0 0 0 0 0 0 0 0 0 0.6504999209950623 0 0 1:0.111253 2:-0.005109 3:-0.009963 4:-0.045922 5:-0.089553 6:0.007919 7:0.003935 8:0.105908 9:-0.0042 10:-0.009783 11:-0.039658 12:-0.092372 13:0.009517 14:0.006564 15:0.098368 16:-0.003156 17:-0.009064 18:-0.032082 19:-0.092148 20:0.004275 21:0.00895 
0 0 0 2.970646573563079 1.562181035242005 0 0 0 0 0 0 0 0 0 0 0 0 1:0.070196 2:0.010681 3:-0.014056 4:0.152162 5:-0.200233 6:0.032684 7:0.012098 8:0.072836 9:0.009436 10:-0.01325 11:0.129546 12:-0.181909 13:0.037357 14:0.012383 15:0.076773 16:0.00852 17:-0.012515 18:0.110976 19:-0.163008 20:0.019394 21:0.004331 
-0.343577279280106 0 1.216749989818818 0 0 0 0 0 0 0 0 0.3689088961230783 0.4548291607274051 0 0 0 1.217824806675966 1:0.056327 2:0.011865 3:-0.006583 4:0.210651 5:-0.116867 6:0.027836 7:0.035537 8:0.064861 9:0.010508 10:-0.007957 11:0.162012 12:-0.12267 13:0.004141 14:0.025178 15:0.074544 16:0.008292 17:-0.00957 18:0.11124 19:-0.128376 20:0.011835 21:0.014788 
0 0 0 0.642143313441305 8.348072379203279 0 4.274099103652706 3.431415135836504 8.943356260722233 0 2.901668401085064 0 0.09371031047656193 0 0 0.7155261233073481 0 1:0.150029 2:0.009282 3:-0.02239 4:0.061869 5:-0.149238 6:0.009215 7:0.003281 8:0.146498 9:0.006336 10:-0.020566 11:0.043248 12:-0.140385 13:0.010215 14:0.004067 15:0.140036 16:0.003588 17:-0.018339 18:0.025624 19:-0.130958 20:0.011185 21:0.005043 
-1.002776100621389 44.87445722768746 1.222339047492212 0 0 0.2473312490440004 0.2870188279365992 0 0 1.531946435372575 0.1484288182007964 0.7351718036115892 0.7359124891000065 0 0 6.940764714723044 0 1:0.168792 2:-0.000489 3:-0.019985 4:-0.002897 5:-0.118397 6:0.010866 7:0.005971 8:0.160121 9:-0.000154 10:-0.019107 11:-0.000959 12:-0.119328 13:0.019952 14:0.010622 15:0.14461 16:0.000589 17:-0.017387 18:0.004071 19:-0.120233 20:0.018751 21:0.010245 
0 0 0 0 0 0 0 0 0 0 0 0 0 1.79262931786842 0 0 0 1:0.154932 2:-0.002311 3:-0.017335 4:-0.014917 5:-0.111885 6:0.007639 7:0.004129 8:0.151641 9:-0.001588 10:-0.017251 11:-0.010473 12:-0.113764 13:0.013164 14:0.007466 15:0.141998 16:-0.00021 17:-0.016625 18:-0.00148 19:-0.117078 20:0.014334 21:0.008139 
0 0 0 31.06757476648866 36.73168505165157 0 0 0 0 0 0 0 0 0 0 0 0 1:0.55079 2:0.189015 3:-0.149305 4:0.34317 5:-0.271073 6:0.012818 7:0.001176 8:0.553068 9:0.185049 10:-0.149073 11:0.334586 12:-0.269538 13:0.031654 14:0.000915 15:0.541579 16:0.174667 17:-0.144723 18:0.322515 19:-0.267225 20:0.044293 21:0.002547 
0 0 0 0 0 0 4.474975759590614 0 0 0 3.050549262742152 0 0 0 0 0 0 1:0.537666 2:0.182757 3:-0.137104 4:0.339908 5:-0.254999 6:0.005138 7:0.001055 8:0.53605 9:0.183684 10:-0.138785 11:0.342663 12:-0.258904 13:0.011506 14:0.002124 15:0.530684 16:0.183748 17:-0.139323 18:0.346247 19:-0.262535 20:0.023305 21:0.004168 
0 0 21.63023293484774 0 0 0 0 0 0 0 0 0 221.5802753691002 0 0 0 2.006881169144573 1:0.552657 2:0.199226 3:-0.125941 4:0.360488 5:-0.227883 6:0.001181 7:0.003676 8:0.542625 9:0.200571 10:-0.129081 11:0.369632 12:-0.237883 13:0.001487 14:0.006209 15:0.530915 16:0.20149 17:-0.130457 18:0.379514 19:-0.245721 20:0.00039 21:0.00545 
0 0 78.25342254265028 0 0 0 0 0 0 0 0 0 0 0 0 0 0 1:0.568159 2:0.20354 3:-0.135779 4:0.358245 5:-0.23898 6:0.003992 7:0.002696 8:0.559193 9:0.202937 10:-0.133719 11:0.362911 12:-0.239128 13:0.00472 14:0.003074 15:0.546408 16:0.19809 17:-0.130469 18:0.362532 19:-0.238777 20:0.018869 21:0.006495 
0 0 0 0 0 0 0 0 0 0 0 0 0 0 0 0 50.13717382839662 1:0.530212 2:0.186973 3:-0.126672 4:0.352638 5:-0.238909 6:0.003681 7:0.003264 8:0.528148 9:0.187546 10:-0.127769 11:0.355101 12:-0.241919 13:0.008666 14:0.00384 15:0.522304 16:0.181495 17:-0.126806 18:0.347489 19:-0.242782 20:0.029375 21:0.010427 
0 0 0 0 0 10.78569140129919 0 0 0 0 0 0 0 0 0 0 0 1:0.242249 2:0.113217 3:0.054372 4:0.467359 5:0.224445 6:0.01074 7:0.003484 8:0.243335 9:0.1135 10:0.053755 11:0.466434 12:0.22091 13:0.007767 14:0.016545 15:0.243015 16:0.113429 17:0.052799 18:0.466759 19:0.217266 20:0.003618 21:0.015321 
0 0 0 0 0 2.043779109033678 0 0 0 0 0 0 0 0 0 0 0 1:0.245917 2:0.12071 3:0.050079 4:0.490856 5:0.20364 6:0.022201 7:0.015669 8:0.244974 9:0.118303 10:0.049798 11:0.482922 12:0.203279 13:0.016572 14:0.013965 15:0.256649 16:0.114276 17:0.046333 18:0.445261 19:0.180532 20:0.047999 21:0.035941 
0 0 0 0 0 11.02658536107164 0 0 0 0 0 0 0 0 0 0 0 1:0.243811 2:0.119049 3:0.047345 4:0.488282 5:0.194187 6:0.021353 7:0.015664 8:0.238479 9:0.118561 10:0.048019 11:0.497154 12:0.201356 13:0.017871 14:0.013965 15:0.237171 16:0.11691 17:0.048853 18:0.492937 19:0.20598 20:0.013111 21:0.012229 
0 0 0 0 0 20.3524426531532 0 0 0 0 0 0 0 0 0 0 0 1:0.253053 2:0.120554 3:0.041822 4:0.476399 5:0.165271 6:0.009819 7:0.00741 8:0.250759 9:0.119389 10:0.042629 11:0.476112 12:0.170002 13:0.008767 14:0.009075 15:0.250636 16:0.117315 17:0.043657 18:0.468067 19:0.174185 20:0.003619 21:0.015264 
0 0 0 0 0 0 0 0 0 0 0 0 0 0.006176909373215888 0 0 0 1:0.22248 2:0.12326 3:0.043824 4:0.554028 5:0.196981 6:0.009857 7:0.007882 8:0.228178 9:0.119053 10:0.046399 11:0.521754 12:0.203347 13:0.007429 14:0.013016 15:0.233637 16:0.11486 17:0.048856 18:0.491617 19:0.209111 20:0.00192 21:0.015203 
0 0 0 0 0 0 0 0 0 4.03361729297466 0 0 0 0.6991115746613513 2.74976986296654 0 0 1:0.268561 2:-0.020174 3:-0.053171 4:-0.075121 5:-0.197983 6:0.001074 7:0.002835 8:0.265732 9:-0.020947 10:-0.052254 11:-0.078826 12:-0.196642 13:0.008519 14:0.00346 15:0.25632 16:-0.020684 17:-0.050756 18:-0.080696 19:-0.19802 20:0.013607 21:0.00171 
0 -36.95032182710762 0 0 0 0 0 0 0 0 0 0 0 0 0 0 0 1:0.202379 2:-0.011545 3:-0.038984 4:-0.057044 5:-0.192627 6:0.00024 7:0.001651 8:0.202379 9:-0.011492 10:-0.040141 11:-0.056786 12:-0.198346 13:0.00338 14:0.003483 15:0.198589 16:-0.011891 17:-0.040929 18:-0.059879 19:-0.206097 20:0.003287 21:0.004972 
0 0 0 0.3551798396279626 0 0 0 0 0 0 0 0 0 0 0 0 2.811934798593039 1:0.210847 2:-0.002043 3:-0.049972 4:-0.009688 5:-0.237007 6:0.002221 7:0.007055 8:0.202042 9:-0.004989 10:-0.047654 11:-0.024692 12:-0.235864 13:0.001669 14:0.007048 15:0.199132 16:-0.007936 17:-0.046662 18:-0.039853 19:-0.23433 20:0.00175 21:0.006223 
0 0 0 0 50.01628094560001 0 0 0 0 0 0 0 0 0 0 0 0 1:0.209286 2:-0.002833 3:-0.049558 4:-0.013536 5:-0.236796 6:0.005745 7:0.006673 8:0.202617 9:-0.005365 10:-0.048043 11:-0.026477 12:-0.237112 13:0.005253 14:0.006997 15:0.199754 16:-0.008075 17:-0.046987 18:-0.040423 19:-0.235227 20:0.0047 21:0.006155 
0 0 0 0 0 0 0 0 0 0 0 0 0 0 0 42.32570690062306 0 1:0.303438 2:-0.015835 3:-0.061993 4:-0.052184 5:-0.204302 6:0.003558 7:0.001906 8:0.290007 9:-0.015592 10:-0.060271 11:-0.053765 12:-0.207828 13:0.006247 14:0.004398 15:0.269672 16:-0.014832 17:-0.057591 18:-0.054999 19:-0.213559 20:0.005767 21:0.006977 
0 0 0 0 0 0 0 0 133.1467117605405 0 0 0 0 0 0 0 0 1:0.304714 2:-0.015454 3:-0.062375 4:-0.050717 5:-0.204699 6:0.00135 7:0.002101 8:0.290264 9:-0.014821 10:-0.060661 11:-0.05106 12:-0.208987 13:0.005286 14:0.004771 15:0.269616 16:-0.014473 17:-0.057636 18:-0.05368 19:-0.213769 20:0.004526 21:0.006029 
0 0 0 0 0 0 0 0 0 0 0 0 0 0 0 0 79.58492445363572 1:0.17435 2:0.083963 3:0.026379 4:0.481578 5:0.151299 6:0.018422 7:0.000864 8:0.19028 9:0.08553 10:0.024979 11:0.449495 12:0.131275 13:0.023528 14:0.003423 15:0.200642 16:0.085767 17:0.024519 18:0.427465 19:0.122204 20:0.038016 21:0.021808 
0 -0.2882486020869607 0 0 0 0 0 0 0 0 0 0 0 0 0 0 0 1:0.212467 2:0.0756 3:0.022059 4:0.355818 5:0.103824 6:0.030548 7:0.011233 8:0.217626 9:0.068857 10:0.018696 11:0.3164 12:0.08591 13:0.075749 14:0.027273 15:0.211179 16:0.060258 17:0.01633 18:0.28534 19:0.077328 20:0.13589 21:0.051321 
0 -7.635886798492876 0 0 0 0 0 0 0 0 0 0 0 0 0 0 0 1:0.264573 2:0.080947 3:0.021477 4:0.305956 5:0.081177 6:0.041029 7:0.039556 8:0.259085 9:0.071562 10:0.018839 11:0.276211 12:0.072715 13:0.086124 14:0.062274 15:0.248071 16:0.05921 17:0.016328 18:0.238683 19:0.06582 20:0.136456 21:0.063878 
0 0 0 0 0 0 0 0 0 0 0 0 31660.95773021219 0 0 0 0 1:0.862397 2:0.231221 3:-0.198332 4:0.268114 5:-0.229977 6:0.000998 7:0.002567 8:0.862447 9:0.229033 10:-0.196863 11:0.265562 12:-0.228261 13:0.000109 14:0.003967 15:0.859888 16:0.226432 17:-0.194304 18:0.263327 19:-0.225964 20:0.004054 21:0.004835 
0 0 0 0 0 0 0 0 0 0 0 0 16533.3905696671 0 0 0 0 1:0.871709 2:0.230683 3:-0.202406 4:0.264633 5:-0.232195 6:0.001293 7:0.000337 8:0.871396 9:0.228899 10:-0.201043 11:0.262681 12:-0.230713 13:0.00381 14:0.000392 15:0.868345 16:0.226044 17:-0.197984 18:0.260316 19:-0.228002 20:0.006785 21:0.001588 
-314.7499056446831 0 0 0 0 0 0 0 0 0 0 0 0 0 0 0 0 1:0.9039 2:0.200063 3:-0.196875 4:0.221333 5:-0.217806 6:0.000697 7:0.000232 8:0.903772 9:0.200159 10:-0.19688 11:0.221471 12:-0.217843 13:0.001 14:0.000336 15:0.901289 16:0.201663 17:-0.196996 18:0.223749 19:-0.218572 20:0.002854 21:0.000788 
0 0 0 0 25.88096042471539 0 0 0 0 0 0 0 0 0 0 0 0 1:0.904439 2:0.19954 3:-0.196775 4:0.220623 5:-0.217565 6:0.002916 7:0.000966 8:0.902128 9:0.201776 10:-0.197198 11:0.223667 12:-0.218592 13:0.00388 14:0.001293 15:0.898091 16:0.204637 17:-0.197405 18:0.227858 19:-0.219805 20:0.005226 21:0.0016 
-508.0020497226526 0 0 118.7388349816879 0 0 0 340.5957419710188 0 0 0 0 0 0 0 0 0 1:0.905038 2:0.198978 3:-0.196677 4:0.219856 5:-0.217313 6:0.000727 7:0.000243 8:0.903602 9:0.200359 10:-0.196931 11:0.221733 12:-0.21794 13:0.001542 14:0.000516 15:0.89952 16:0.203217 17:-0.19721 18:0.225917 19:-0.219239 20:0.003859 21:0.001259 
0 0 0 0 0 0 0 0 11810.3061516045 0 0 0 0 0 0 0 0 1:0.858092 2:0.217189 3:-0.186703 4:0.253107 5:-0.21758 6:0.0107 7:0.001735 8:0.876813 9:0.212213 10:-0.192444 11:0.242028 12:-0.219481 13:0.009505 14:0.002937 15:0.885711 16:0.207069 17:-0.193763 18:0.233788 19:-0.218765 20:0.009722 21:0.005382 
0 0 823.2478048774153 0 0 0 0 0 0 0 34.91238363954503 0 0 0 0 0 42.46060655284222 1:0.837088 2:0.216361 3:-0.176269 4:0.258468 5:-0.210574 6:0.009498 7:0.003923 8:0.819045 9:0.218957 10:-0.170014 11:0.267332 12:-0.207575 13:0.019145 14:0.008775 15:0.827081 16:0.218201 17:-0.173031 18:0.263821 19:-0.209207 20:0.01498 21:0.008314 
0 0 0 0 32.753901611009 0 9.120212412141513 0 0 0 0 0 0 0 0 0 0 1:0.892426 2:0.209833 3:-0.198066 4:0.235126 5:-0.221942 6:0.003268 7:0.000928 8:0.879683 9:0.213293 10:-0.194463 11:0.242466 12:-0.22106 13:0.004936 14:0.001556 15:0.865739 16:0.215247 17:-0.189001 18:0.248628 19:-0.218312 20:0.002597 21:0.004328 
0 0 0 0 0 0 0 0 0 0 0 0 9275.757144351763 0 0 0 0 1:0.83885 2:0.220118 3:-0.179528 4:0.262404 5:-0.214017 6:0.006483 7:0.001026 8:0.846299 9:0.219352 10:-0.182693 11:0.259189 12:-0.215873 13:0.00694 14:0.000934 15:0.85912 16:0.217511 17:-0.187326 18:0.253179 19:-0.218044 20:0.004382 21:0.001843 
0 0 0 0 0 0 373.052000449166 0 1407.447455269613 0 0 0 0 0 0 0 0 1:0.816989 2:0.028481 3:-0.203301 4:0.034861 5:-0.248842 6:0.003136 7:0.00094 8:0.81538 9:0.027151 10:-0.202639 11:0.033298 12:-0.248521 13:0.00357 14:0.001331 15:0.813214 16:0.023411 17:-0.201028 18:0.028788 19:-0.247202 20:0.003001 21:0.004951 
0 0 0 0 0 0 0 0 0 0 0 0 0 0 0 15.41183093044374 0 1:0.803957 2:0.016755 3:-0.189204 4:0.020841 5:-0.235341 6:0.003833 7:0.003939 8:0.802847 9:0.016916 10:-0.189794 11:0.021069 12:-0.236401 13:0.007344 14:0.007273 15:0.796707 16:0.01604 17:-0.187726 18:0.020132 19:-0.235628 20:0.009076 21:0.011396 
0 0 0 0 0 0 0 0 0 0 30.21118283023921 0 0 0 0 0 0 1:0.804959 2:0.028255 3:-0.200039 4:0.035101 5:-0.248509 6:0.00281 7:0.00162 8:0.807902 9:0.025929 10:-0.199336 11:0.032094 12:-0.246733 13:0.003994 14:0.002954 15:0.807316 16:0.021981 17:-0.197766 18:0.027227 19:-0.244968 20:0.004653 21:0.00641 
0 0 0 0 0 0 0 0 0 52.90763434555129 0 0 0 0 0.0172222245664642 0 0 1:0.868716 2:0.01407 3:-0.229794 4:0.016196 5:-0.264521 6:0.001637 7:0.000694 8:0.864256 9:0.014788 10:-0.22861 11:0.017111 12:-0.264517 13:0.001827 14:0.000756 15:0.856791 16:0.016123 17:-0.22691 18:0.018818 19:-0.264837 20:0.001689 21:0.000735 
0 0 0 0 0 0 0 0 0 0 0 0 0 0 0 698.0786879634587 0 1:0.776641 2:0.011685 3:-0.189476 4:0.015045 5:-0.243969 6:0.001306 7:0.001404 8:0.773968 9:0.011631 10:-0.189459 11:0.015028 12:-0.244789 13:0.003243 14:0.003765 15:0.767936 16:0.009977 17:-0.188547 18:0.012992 19:-0.245524 20:0.004867 21:0.004612 
0 0 0 0 0 0 0 113.708621455399 0 0 0 0 0 0 0 0 0 1:0.860003 2:0.025047 3:-0.233611 4:0.029125 5:-0.27164 6:0.004066 7:0.003499 8:0.856609 9:0.025782 10:-0.232506 11:0.030098 12:-0.271427 13:0.005657 14:0.00304 15:0.839602 16:0.021076 17:-0.224096 18:0.025103 19:-0.266907 20:0.002734 21:0.003178 
0 0 0 0 33.51718146544293 0 0 0 0 0 61.76037303988657 0 0 0 0 0 0 1:0.745959 2:0.013884 3:-0.191876 4:0.018613 5:-0.257221 6:0.001038 7:0.002287 8:0.7535 9:0.011455 10:-0.190203 11:0.015202 12:-0.252427 13:0.001763 14:0.000643 15:0.729707 16:0.00624 17:-0.179972 18:0.008551 19:-0.246636 20:0.009606 21:0.003481 
0 0 0 0 27.85802154674851 0 0 0 0 0 0 0 0 0 0 0 0 1:0.80736 2:0.028313 3:-0.223342 4:0.035069 5:-0.276632 6:0.002212 7:0.004912 8:0.81248 9:0.024611 10:-0.22305 11:0.030292 12:-0.27453 13:0.000721 14:0.001405 15:0.787725 16:0.017514 17:-0.210567 18:0.022233 19:-0.26731 20:0.006597 21:0.007016 
0 0 0 81.74851734146917 0 0 0 13.41732273867589 0 0 0 0 0 0 0 0 0 1:0.85291 2:0.030768 3:-0.235458 4:0.036074 5:-0.276065 6:0.005531 7:0.003443 8:0.850076 9:0.02846 10:-0.232065 11:0.033479 12:-0.272993 13:0.004247 14:0.000473 15:0.822626 16:0.020329 17:-0.219232 18:0.024712 19:-0.266503 20:0.006322 21:0.005476 
0 0 0 0 0 0 0 0 0 0 0 0 0 0.02371816880023787 0.350455816948267 0 0 1:0.429305 2:0.047427 3:0.079668 4:0.110473 5:0.185574 6:0.001612 7:0.002076 8:0.429082 9:0.049903 10:0.078909 11:0.116301 12:0.183902 13:0.001555 14:0.001682 15:0.428805 16:0.054771 17:0.076872 18:0.12773 19:0.179271 20:0.003246 21:0.003915 
0 0 0 0 0 0 0 0 0 0 0 0 0 0 0.7114232847943904 0 0 1:0.420058 2:0.052595 3:0.073437 4:0.12521 5:0.174827 6:0.003468 7:0.005844 8:0.418887 9:0.047812 10:0.070298 11:0.11414 12:0.16782 13:0.029462 14:0.020908 15:0.400169 16:0.037666 17:0.063979 18:0.094126 19:0.159879 20:0.062749 21:0.034565 
0 0 0 0 0 0 0 0 0 0.1298932151561245 0 0 0 0.1344469798797168 0.2264611417744157 0 0 1:0.237985 2:0.043488 3:0.141083 4:0.182733 5:0.592822 6:0.003924 7:0.015916 8:0.23435 9:0.046376 10:0.140038 11:0.197892 12:0.597562 13:0.003867 14:0.014232 15:0.232586 16:0.051168 17:0.137456 18:0.219996 19:0.590989 20:0.002282 21:0.008789 
0 0 0 0 0 0 0 0 0 1.01329938857396 0 0.4353639057975153 0 0.3012738129610351 0 0 0 1:0.158589 2:0.057892 3:0.122783 4:0.365045 5:0.774222 6:0.015616 7:0.033377 8:0.165418 9:0.058276 10:0.121601 11:0.352294 12:0.735111 13:0.022072 14:0.032915 15:0.177959 16:0.059059 17:0.119109 18:0.331871 19:0.669308 20:0.036401 21:0.009761 
0 0 0 0 0 0 0 0 1048576 0 0 0 0 0 0 0 0 1:0.908293 2:0.094205 3:-0.126765 4:0.103716 5:-0.139564 6:0.001034 7:0.002342 8:0.909813 9:0.094135 10:-0.127573 11:0.103467 12:-0.140219 13:0.000343 14:0.003005 15:0.910085 16:0.094914 17:-0.128189 18:0.104292 19:-0.140854 20:0.002032 21:0.00343 
0 0 0 0 0 0 0 0 1048576 0 0 0 0 0 0 0 0 1:0.913589 2:0.093743 3:-0.128976 4:0.10261 5:-0.141175 6:0.000857 7:0.002351 8:0.914576 9:0.09431 10:-0.129869 11:0.103119 12:-0.141999 13:0.001053 14:0.002886 15:0.914875 16:0.095175 17:-0.130687 18:0.104031 19:-0.142847 20:0.000683 21:0.003251 
0 0 0 0 0 0 0 0 1048576 0 0 0 0 0 0 0 0 1:0.917305 2:0.097773 3:-0.133496 4:0.106587 5:-0.145531 6:0.000848 7:0.001312 8:0.917162 9:0.096941 10:-0.132872 11:0.105697 12:-0.144873 13:0.000991 14:0.001972 15:0.917253 16:0.096047 17:-0.1326 18:0.104712 19:-0.144562 20:0.001636 21:0.002452 
0 0 0 0 0 0 0 0 1048576 0 0 0 0 0 0 0 0 1:0.924556 2:0.093518 3:-0.134053 4:0.101149 5:-0.144991 6:0.000958 7:0.000971 8:0.923741 9:0.094266 10:-0.134171 11:0.102048 12:-0.145248 13:0.001604 14:0.001527 15:0.920501 16:0.094536 17:-0.133413 18:0.102701 19:-0.144935 20:0.002206 21:0.002388 
0 0 0 0 0 0 732.0071126864906 0 1048576 0 0 0 0 0 0 0 0 1:0.909118 2:0.093364 3:-0.126585 4:0.102697 5:-0.139239 6:0.001235 7:0.001602 8:0.907775 9:0.093303 10:-0.126066 11:0.102783 12:-0.138874 13:0.000374 14:0.00346 15:0.904626 16:0.094697 17:-0.125615 18:0.104681 19:-0.138859 20:0.003375 21:0.00465 
0 0 0 0 0 0 0 0 822360.9766278302 0 0 0 0 0 0 0 0 1:0.918248 2:0.095325 3:-0.132277 4:0.103812 5:-0.144054 6:0.000905 7:0.002264 8:0.917711 9:0.09524 10:-0.131967 11:0.103779 12:-0.1438 13:0.000901 14:0.003029 15:0.917448 16:0.095411 17:-0.132183 18:0.103996 19:-0.144076 20:0.000742 21:0.003334 
0 0 0 0 0 0 0 0 1048576 0 0 0 0 0 0 0 0 1:0.921606 2:0.097379 3:-0.135279 4:0.105662 5:-0.146786 6:0.000778 7:0.000634 8:0.92089 9:0.096738 10:-0.134498 11:0.105048 12:-0.146052 13:0.001279 14:0.001464 15:0.920025 16:0.095732 17:-0.133783 18:0.104053 19:-0.145412 20:0.00202 21:0.002317 
0 0 0 0 0 0 0 0 1048576 0 0 0 0 0 0 0 0 1:0.913061 2:0.093642 3:-0.128655 4:0.102558 5:-0.140905 6:3.7e-005 7:0.0015 8:0.912943 9:0.093859 10:-0.128808 11:0.102809 12:-0.14109 13:0.000346 14:0.003241 15:0.910431 16:0.09431 17:-0.128129 18:0.103588 19:-0.140735 20:0.002299 21:0.004629 
0 0 0 0 0 0 0 0 1048576 0 0 0 0 0 0 0 0 1:0.924345 2:0.096537 3:-0.136011 4:0.104438 5:-0.147143 6:0.001198 7:0.000468 8:0.92424 9:0.096091 10:-0.135654 11:0.103968 12:-0.146774 13:0.001694 14:0.001045 15:0.92299 16:0.095241 17:-0.134871 18:0.103188 19:-0.146124 20:0.002377 21:0.002073 
0 0 0 0 0 0 0 0 1048576 0 0 0 0 0 0 0 0 1:0.924522 2:0.094536 3:-0.134731 4:0.102254 5:-0.145731 6:0.001332 7:0.000424 8:0.923629 9:0.093547 10:-0.133627 11:0.101281 12:-0.144676 13:0.001971 14:0.002041 15:0.920745 16:0.093134 17:-0.132447 18:0.10115 19:-0.143847 20:0.003374 21:0.0041 
0 0 0 0 0 0 0 0 5897.894735495843 0 0 0 0 0 0 0 0 1:0.929436 2:0.095525 3:-0.13775 4:0.102777 5:-0.148208 6:0.000945 7:0.000603 8:0.929189 9:0.095059 10:-0.137313 11:0.102303 12:-0.147778 13:0.002131 14:0.001278 15:0.928188 16:0.093922 17:-0.136293 18:0.101189 19:-0.146838 20:0.003358 21:0.002718 
0 0 0 0 0 0 0 0 1048576 0 0 0 0 0 0 0 0 1:0.927059 2:0.092833 3:-0.13478 4:0.100138 5:-0.145384 6:0.002032 7:0.000304 8:0.928393 9:0.0929 10:-0.13546 11:0.100065 12:-0.145908 13:0.002639 14:0.001672 15:0.926506 16:0.092524 17:-0.134671 18:0.099863 19:-0.145353 20:0.003866 21:0.003416 
0 0 0 0 0 0 0 191.8972072800803 209141.9082089976 0 0 0 0 0 0 0 0 1:0.934751 2:0.095374 3:-0.140181 4:0.102031 5:-0.149967 6:0.002123 7:0.000211 8:0.933978 9:0.095772 10:-0.140098 11:0.102542 12:-0.150002 13:0.003217 14:0.000198 15:0.934075 16:0.093843 17:-0.139047 18:0.100466 19:-0.14886 20:0.002411 21:0.000669 
-179.9474614022641 0 0 0 0 0 0 0 0 0 0 0 0 0 0 0 0 1:0.932274 2:0.096813 3:-0.139981 4:0.103846 5:-0.150151 6:0.003397 7:0.00064 8:0.932127 9:0.096392 10:-0.139643 11:0.103411 12:-0.149812 13:0.003216 14:0.000628 15:0.933616 16:0.093458 17:-0.138568 18:0.100103 19:-0.148421 20:0.002501 21:0.001545 
-546.345883903351 0 0 0 0 0 0 36.82733632537767 0 0 0 0 0 0 0 0 0 1:0.967113 2:0.092258 3:-0.153492 4:0.095396 5:-0.158711 6:0.000866 7:0.000842 8:0.964363 9:0.09098 10:-0.151308 11:0.094342 12:-0.1569 13:0.001146 14:0.001352 15:0.961042 16:0.088769 17:-0.148214 18:0.092368 19:-0.154222 20:0.001463 21:0.001729 
0 0 0 0 0 0 0 0 47063.98004661918 0 0 0 0 0 0 0 0 1:0.96658 2:0.087665 3:-0.150105 4:0.090696 5:-0.155295 6:0.00304 7:0.001938 8:0.964674 9:0.088507 10:-0.149769 11:0.091748 12:-0.155254 13:0.003504 14:0.002617 15:0.959547 16:0.088954 17:-0.147629 18:0.092704 19:-0.153853 20:0.002718 21:0.002634 
0 0 0 0 0 0 0 0 510201.2808596692 0 0 0 0 0 0 0 0 1:0.942765 2:0.088037 3:-0.138999 4:0.093382 5:-0.147438 6:0.001776 7:0.001922 8:0.947041 9:0.088504 10:-0.141357 11:0.093453 12:-0.149262 13:0.003186 14:0.003657 15:0.944795 16:0.089681 17:-0.141113 18:0.094921 19:-0.149359 20:0.004606 21:0.006062 
0 0 0 0 0 0 0 0 0 102.2863841651687 0 37.79258700298243 0 0 0.1175386737692026 0 0 1:0.976613 2:0.084388 3:-0.152655 4:0.086409 5:-0.15631 6:0.00044 7:0.000522 8:0.972267 9:0.085996 10:-0.151679 11:0.088449 12:-0.156006 13:0.000733 14:0.001076 15:0.963389 16:0.08765 17:-0.148593 18:0.090981 19:-0.15424 20:0.001297 21:0.001558 
0 0 0 0 0 0 0 0 1048576 0 0 0 0 0 0 0 0 1:0.922097 2:0.091863 3:-0.131752 4:0.099624 5:-0.142883 6:0.004161 7:0.003719 8:0.916495 9:0.092003 10:-0.129177 11:0.100386 12:-0.140947 13:0.006289 14:0.006589 15:0.917135 16:0.092396 17:-0.129855 18:0.100744 19:-0.141587 20:0.007784 21:0.009053 
0 0 0 0 0 0 0 0 926569.5141462521 0 0 0 0 0 0 0 0 1:0.932662 2:0.088904 3:-0.134773 4:0.095323 5:-0.144503 6:0.003202 7:0.003156 8:0.922802 9:0.090214 10:-0.130969 11:0.097761 12:-0.141925 13:0.006515 14:0.007262 15:0.919766 16:0.091278 17:-0.130396 18:0.099241 19:-0.141771 20:0.008185 21:0.009682 
0 0 0 0 0 0 0 0 218582.5662768642 0 0 0 0 0 0 0 0 1:0.850168 2:0.097874 3:-0.101709 4:0.115123 5:-0.119634 6:0.015398 7:0.014948 8:0.870264 9:0.09552 10:-0.109683 11:0.10976 12:-0.126034 13:0.012127 14:0.011733 15:0.886275 16:0.093981 17:-0.116611 18:0.106041 19:-0.131574 20:0.011378 21:0.012005 
0 0 0 0 0 0 0 505.1352815710305 0 0 0 0 0 0 0 0 0 1:0.950898 2:0.094132 3:-0.147036 4:0.098992 5:-0.154628 6:0.001107 7:0.000295 8:0.951435 9:0.092874 10:-0.146429 11:0.097614 12:-0.153904 13:0.000286 14:0.00125 15:0.94835 16:0.091088 17:-0.144047 18:0.096049 19:-0.151892 20:0.00197 21:0.001963 
-153.3098247323591 0 0 0 0 0 0 397.2341825927481 0 0 0 0 0 0 0 0 0 1:0.951348 2:0.094633 3:-0.147592 4:0.099473 5:-0.15514 6:0.000422 7:0.000616 8:0.953475 9:0.092701 10:-0.147285 11:0.097225 12:-0.154472 13:0.001355 14:0.000509 15:0.951159 16:0.09064 17:-0.145066 18:0.095294 19:-0.152515 20:0.002545 21:0.001286 
0 0 0 0 0 0 0 0 35240.54444962022 0 0 0 0 0 0 0 0 1:0.92316 2:0.08802 3:-0.129642 4:0.095346 5:-0.140433 6:0.006858 7:0.006064 8:0.901629 9:0.09101 10:-0.121537 11:0.10094 12:-0.134797 13:0.012233 14:0.012563 15:0.900049 16:0.091543 17:-0.121541 18:0.101709 19:-0.135038 20:0.011523 21:0.013039 
0 0 0 0 0 0 0 0 216463.7737800323 0 0 0 0 0 0 0 0 1:0.932282 2:0.086926 3:-0.133236 4:0.09324 5:-0.142914 6:0.00158 7:0.001734 8:0.918577 9:0.088868 10:-0.12814 11:0.096745 12:-0.139499 13:0.009013 14:0.009737 15:0.908949 16:0.090327 17:-0.12486 18:0.099375 19:-0.137368 20:0.010233 21:0.012227 
0 0 0 0 0 0 0 0 1048576 0 0 0 0 0 0 0 0 1:0.90873 2:0.086902 3:-0.121993 4:0.09563 5:-0.134246 6:0.001996 7:0.001264 8:0.913396 9:0.088134 10:-0.125258 11:0.096491 12:-0.137134 13:0.002074 14:0.001623 15:0.923269 16:0.088568 17:-0.12992 18:0.095929 19:-0.140717 20:0.001807 21:0.00268 
0 0 0 0 0 0 0 0 668026.1540280328 0 0 0 0 0 0 0 0 1:0.926314 2:0.086234 3:-0.129848 4:0.093094 5:-0.140177 6:0.002904 7:0.002477 8:0.913548 9:0.087625 10:-0.125514 11:0.095917 12:-0.137392 13:0.007442 14:0.009288 15:0.892197 16:0.088201 17:-0.117829 18:0.098858 19:-0.132066 20:0.010909 21:0.013029 
0 0 0 0 0 0 0 0 478873.1729868503 0 0 0 0 0 0 0 0 1:0.903169 2:0.090163 3:-0.121564 4:0.099829 5:-0.134597 6:0.004526 7:0.001372 8:0.909204 9:0.089297 10:-0.124099 11:0.098214 12:-0.136492 13:0.003914 14:0.001378 15:0.916186 16:0.085724 17:-0.126594 18:0.093566 19:-0.138175 20:0.006419 21:0.004196 
0 0 0 0 0 0 0 0 66375.01317106898 0 0 0 0 0 0 0 0 1:0.912662 2:0.087402 3:-0.124276 4:0.095766 5:-0.136168 6:0.002094 7:0.001071 8:0.914636 9:0.086785 10:-0.124691 11:0.094885 12:-0.136329 13:0.005142 14:0.000652 15:0.910963 16:0.08265 17:-0.124848 18:0.090728 19:-0.137051 20:0.010265 21:0.00435 
0 0 210.7051298252339 0 0 0 177.2821603095621 0 0 0 192.0401712438592 0 0 0 0 74.79312967497418 68.01048362911777 1:0.812465 2:0.094921 3:-0.085768 4:0.116831 5:-0.105565 6:0.017765 7:0.021253 8:0.833379 9:0.094479 10:-0.094427 11:0.113369 12:-0.113306 13:0.016855 14:0.01866 15:0.829921 16:0.086927 17:-0.097417 18:0.104741 19:-0.11738 20:0.017185 21:0.013957 
0 0 0 0 0 0 54.20484769817006 0 0 0 21.28170908700084 0 0 0 0 0 0 1:0.896251 2:0.089186 3:-0.118783 4:0.09951 5:-0.132533 6:0.011606 7:0.013939 8:0.867504 9:0.088943 10:-0.106946 11:0.102528 12:-0.12328 13:0.016428 14:0.017443 15:0.825318 16:0.080028 17:-0.09866 18:0.096966 19:-0.119542 20:0.021359 21:0.015053 
0 0 0 0 0 0 0 0 74176.20695274825 0 0 0 0 0 0 0 0 1:0.906801 2:0.090293 3:-0.12378 4:0.099573 5:-0.136501 6:0.002883 7:0.000887 8:0.913042 9:0.085367 10:-0.123562 11:0.093497 12:-0.13533 13:0.009591 14:0.003077 15:0.880383 16:0.073999 17:-0.117298 18:0.084053 19:-0.133236 20:0.019314 21:0.008956 
0 0 0 0 0 0 90.25440503941623 0 0 0 0 0 0 0 0 232.0921303025483 0 1:0.924008 2:0.086263 3:-0.128841 4:0.093357 5:-0.139437 6:0.004143 7:0.004894 8:0.887334 9:0.081706 10:-0.114512 11:0.09208 12:-0.129052 13:0.014833 14:0.012931 15:0.812194 16:0.071244 17:-0.098163 18:0.087717 19:-0.120861 20:0.026117 21:0.01505 
0 0 0 0 0 0 0 0 0 0 0 0 0 0.1840455389977939 0.08824018299047008 0 0 1:0.974002 2:0.07867 3:-0.147583 4:0.08077 5:-0.151522 6:0.003722 7:0.001445 8:0.960577 9:0.075675 10:-0.143274 11:0.07878 12:-0.149154 13:0.011152 14:0.004417 15:0.894736 16:0.065409 17:-0.129431 18:0.073105 19:-0.144658 20:0.021468 21:0.009379 
0 0 0 0 0 15.39548177748106 0 0 0 0 0 0 0 0 0 0 0 1:0.420705 2:0.122805 3:0.058905 4:0.291902 5:0.140016 6:0.013397 7:0.015297 8:0.443693 9:0.122669 10:0.055899 11:0.276474 12:0.125986 13:0.016491 14:0.014604 15:0.463204 16:0.123463 17:0.05205 18:0.266542 19:0.11237 20:0.021348 21:0.010619 
0 0 0 0 0 0 0 0 1459.758637597181 0 0 0 0 0 0 0 0 1:0.550928 2:0.118304 3:0.027247 4:0.214735 5:0.049457 6:0.00204 7:0.002273 8:0.542653 9:0.118961 10:0.030723 11:0.219222 12:0.056616 13:0.001227 14:0.003875 15:0.533946 16:0.12016 17:0.033944 18:0.225042 19:0.063571 20:0.005356 21:0.007134 
0 0 462.2175541887511 0 0 0 0 0 0 0 0 0 0 0 0 0 0 1:0.527328 2:0.129698 3:0.030734 4:0.245953 5:0.058283 6:0.008713 7:0.010824 8:0.529839 9:0.126604 10:0.031646 11:0.238948 12:0.059728 13:0.008737 14:0.00888 15:0.527103 16:0.125285 17:0.033754 18:0.237686 19:0.064037 20:0.005359 21:0.005058 
0 0 528.2671485939948 0 0 0 0 0 0 0 0 0 0 0 0 0 0 1:0.537469 2:0.124618 3:0.029324 4:0.231861 5:0.054559 6:0.003002 7:0.004836 8:0.539028 9:0.123998 10:0.029136 11:0.230039 12:0.054052 13:0.005328 14:0.003287 15:0.531836 16:0.123699 17:0.031564 18:0.232588 19:0.059349 20:0.007756 21:0.004615 
-3.29035707778089 0 0 0 0 0 0 0 0 0 0 0 0 0 0 0 36.84867281973506 1:0.540137 2:0.130703 3:0.023939 4:0.241981 5:0.044319 6:0.004476 7:0.005498 8:0.533946 9:0.127607 10:0.029002 11:0.238988 12:0.054317 13:0.005594 14:0.004797 15:0.527367 16:0.12591 17:0.033188 18:0.238752 19:0.062931 20:0.005745 21:0.001001 
0 0 0 0 0 11.45706078703699 0 0 0 0 0 0 0 0 0 0 0 1:0.395204 2:0.129974 3:0.057918 4:0.328878 5:0.146552 6:0.013967 7:0.014347 8:0.455221 9:0.129513 10:0.045982 11:0.284506 12:0.101011 13:0.00844 14:0.006095 15:0.483929 16:0.127687 17:0.041513 18:0.263855 19:0.085782 20:0.010697 21:0.008018 
0 0 0 0 0 0 0 0 0 0 0 0 15.66083595761355 0 0 0 0 1:0.491658 2:0.127052 3:0.049497 4:0.258416 5:0.100674 6:0.005358 7:0.005255 8:0.489618 9:0.128229 10:0.048989 11:0.261896 12:0.100056 13:0.008467 14:0.007718 15:0.492823 16:0.128354 17:0.04689 18:0.260447 19:0.095145 20:0.004666 21:0.005368 
0 0 0 0 0.5286610992249351 0 0 0 0 0 0 0 0 0 0 0 0 1:0.555357 2:-0.025125 3:-0.158835 4:-0.045241 5:-0.286005 6:0.002703 7:0.002687 8:0.565551 9:-0.02327 10:-0.162169 11:-0.041146 12:-0.286745 13:0.010158 14:0.009013 15:0.569369 16:-0.01871 17:-0.163633 18:-0.032861 19:-0.287394 20:0.019903 21:0.012838 
0 0 0 0 0 0 0 0 0 0 0 0 0 2.302910734449184 0 0 0 1:0.551465 2:-0.038776 3:-0.157745 4:-0.070315 5:-0.286048 6:0.001687 7:0.001727 8:0.544506 9:-0.034124 10:-0.159438 11:-0.062669 12:-0.292812 13:0.004371 14:0.001096 15:0.535461 16:-0.030424 17:-0.159943 18:-0.056819 19:-0.298701 20:0.003032 21:0.005417 
0 0 0 0 56.1799308862466 0 0 0 0 0 0 0 0 0 0 0 0 1:0.513587 2:-0.023048 3:-0.170686 4:-0.044877 5:-0.332342 6:0.002775 7:0.00277 8:0.523592 9:-0.02336 10:-0.171423 11:-0.044614 12:-0.327398 13:0.002486 14:0.00509 15:0.52263 16:-0.025546 17:-0.164901 18:-0.04888 19:-0.315521 20:0.009308 21:0.012292 
0 0 0 0 0 0 0 0 0 0 0 0 0 0 0 0 5173.27090376241 1:0.738269 2:0.157986 3:-0.089173 4:0.213995 5:-0.120787 6:0.003566 7:0.003946 8:0.730772 9:0.158743 10:-0.086119 11:0.217227 12:-0.117847 13:0.008055 14:0.005272 15:0.711528 16:0.161269 17:-0.078748 18:0.226652 19:-0.110675 20:0.01249 21:0.007046 
0 -0.835657991318818 0 0.3283531154866188 0 0 0 0 0 0.3722305478011731 0 0.06078624757236025 0 0.4467132713736796 0.2865778376743571 0 0 1:0.271513 2:0.164397 3:0.025458 4:0.605486 5:0.093765 6:0.056237 7:0.012887 8:0.296107 9:0.163535 10:0.024436 11:0.552282 12:0.082524 13:0.142882 14:0.050425 15:0.365919 16:0.161196 17:0.016194 18:0.440524 19:0.044257 20:0.125318 21:0.058158 
0 0 -137.8654398610153 0 0 0 0 0 0 0 0 0 0 0 0 0 0 1:0.478915 2:0.167024 3:0.01194 4:0.348754 5:0.024931 6:0.008556 7:0.004236 8:0.474297 9:0.165492 10:0.013003 11:0.348921 12:0.027414 13:0.005862 14:0.007237 15:0.469553 16:0.165096 17:0.011703 18:0.351602 19:0.024923 20:0.035518 21:0.029862 
0 0 0 0 0 0 0 0 0 0 0 0 0 0 0 0 598.0020645985769 1:0.669988 2:0.160282 3:-0.058171 4:0.239231 5:-0.086825 6:0.016704 7:0.014665 8:0.685786 9:0.159326 10:-0.065054 11:0.232325 12:-0.094861 13:0.017436 14:0.017032 15:0.695615 16:0.159006 17:-0.069562 18:0.228583 19:-0.1 20:0.010409 21:0.015434 
0 0 0 0 0 0 0 0 2187.561730781432 0 0 0 0 0 0 0 0 1:0.735653 2:0.159725 3:-0.089112 4:0.21712 5:-0.121133 6:0.000406 7:0.00074 8:0.728652 9:0.160321 10:-0.086185 11:0.220024 12:-0.11828 13:0.008412 14:0.002337 15:0.708925 16:0.163218 17:-0.078776 18:0.230233 19:-0.11112 20:0.016991 21:0.005644 
0 0 0 0 0 20.75754592528173 0 0 0 0 0 0 0 0 0 0 0 1:0.467772 2:0.164201 3:0.016728 4:0.351028 5:0.035761 6:0.02356 7:0.021264 8:0.463126 9:0.16344 10:0.016466 11:0.352907 12:0.035553 13:0.027888 14:0.025469 15:0.457829 16:0.165806 17:0.014982 18:0.362157 19:0.032723 20:0.037417 21:0.027669 
0 0 0 0 0 0 0 0 456.6949759379344 0 0 0 0 0 0 0 0 1:0.691827 2:0.162734 3:-0.070261 4:0.235224 5:-0.101558 6:0.010119 7:0.010454 8:0.693994 9:0.161115 10:-0.07019 11:0.232157 12:-0.101139 13:0.009974 14:0.012532 15:0.694683 16:0.161515 17:-0.070811 18:0.232503 19:-0.101933 20:0.008077 21:0.013246 
0 0 -13.28373924498368 0 0 51.48455471245224 0 0 0 0 0 0 0 0 0 0 0 1:0.306362 2:0.160228 3:0.038089 4:0.523002 5:0.124328 6:0.05603 7:0.028557 8:0.337322 9:0.158598 10:0.034748 11:0.470167 12:0.103012 13:0.052466 14:0.026968 15:0.382701 16:0.161614 17:0.025906 18:0.422299 19:0.067693 20:0.044808 21:0.024891 
0 0 0 0 0 0 0 0 2135.034908513332 0 0 0 0 0 0 0 0 1:0.708268 2:0.161034 3:-0.076943 4:0.227363 5:-0.108636 6:0.015023 7:0.004788 8:0.69927 9:0.164877 10:-0.075272 11:0.235784 12:-0.107644 13:0.012254 14:0.005418 15:0.694764 16:0.166458 17:-0.07421 18:0.23959 19:-0.106814 20:0.011898 21:0.009941 
0 0 0 0 0 4.447533773555105 0 0 0 0 0 0 0 0 0 0 0 1:0.419482 2:0.168668 3:0.02078 4:0.402087 5:0.049536 6:0.041856 7:0.026129 8:0.423324 9:0.166153 10:0.020302 11:0.392496 12:0.047958 13:0.047938 14:0.036161 15:0.431142 16:0.165865 17:0.017109 18:0.384711 19:0.039683 20:0.042905 21:0.039668 
-250.706437919786 0 0 0 0 0 0 0 0 0 0 0 0 0 0 0 575.024665380662 1:0.77486 2:0.178075 3:-0.120329 4:0.229815 5:-0.155291 6:0.008784 7:0.005712 8:0.772358 9:0.17941 10:-0.120046 11:0.232289 12:-0.155429 13:0.011219 14:0.011878 15:0.763703 16:0.1826 17:-0.118095 18:0.239098 19:-0.154635 20:0.009608 21:0.022524 
0 0 0 0 0 0 0 0 0 0 0 0 30728.43571045022 0 0 0 0 1:0.788228 2:0.219268 3:-0.154803 4:0.278178 5:-0.196393 6:0.002663 7:0.002423 8:0.785535 9:0.219044 10:-0.153365 11:0.278847 12:-0.195237 13:0.002859 14:0.004156 15:0.782468 16:0.217554 17:-0.150886 18:0.278036 19:-0.192833 20:0.004115 21:0.00732 
0 0 0 0 0 0 0 0 0 0 0 0 115708.3140209848 0 0 0 0 1:0.789881 2:0.222755 3:-0.157969 4:0.282011 5:-0.199991 6:0.002737 7:0.001359 8:0.789055 9:0.222032 10:-0.157082 11:0.28139 12:-0.199077 13:0.003932 14:0.001647 15:0.786406 16:0.221735 17:-0.155617 18:0.28196 19:-0.197883 20:0.003181 21:0.001396 
0 0 0 0 0 0 0 0 0 0 0 0 15545.47053632815 0 0 0 0 1:0.782229 2:0.226692 3:-0.157005 4:0.289803 5:-0.200715 6:0.00135 7:0.003674 8:0.780911 9:0.223862 10:-0.154446 11:0.286668 12:-0.197776 13:0.003222 14:0.006322 15:0.78103 16:0.21981 17:-0.151739 18:0.281436 19:-0.19428 20:0.005569 21:0.007696 
0 0 0 0 0 0 0 0 0 0 0 0 52699.09099592848 0 0 0 0 1:0.784127 2:0.223148 3:-0.155493 4:0.284581 5:-0.198301 6:0.002014 7:0.00068 8:0.784307 9:0.223686 10:-0.155945 11:0.285202 12:-0.198832 13:0.002299 14:0.001991 15:0.785716 16:0.222254 17:-0.155643 18:0.282868 19:-0.19809 20:0.004179 21:0.001892 
0 0 0 0 0 0 0 0 0 0 0 0 3544.011090083539 0 0 0 0 1:0.783198 2:0.225002 3:-0.156315 4:0.287286 5:-0.199585 6:0.005464 7:0.001314 8:0.788244 9:0.221131 10:-0.156081 11:0.280536 12:-0.198011 13:0.008671 14:0.002354 15:0.789939 16:0.219337 17:-0.155667 18:0.277663 19:-0.197062 20:0.00956 21:0.001976 
0 0 0 0 0 0 0 0 0 0 0 0 10990.87960881836 0 0 0 0 1:0.776977 2:0.218227 3:-0.148726 4:0.280866 5:-0.191416 6:0.007989 7:0.006251 8:0.781342 9:0.217003 10:-0.149973 11:0.277731 12:-0.191943 13:0.008609 14:0.006802 15:0.78374 16:0.21501 17:-0.149759 18:0.274339 19:-0.191082 20:0.007847 21:0.007918 
0 0 -889.6221515789063 18.30440196084256 22.38193546264695 0 0 0 0 0 0 0.8990339785422493 0 0 0 0 0 1:0.816737 2:0.210083 3:-0.162135 4:0.257222 5:-0.198516 6:0.003641 7:0.001229 8:0.810587 9:0.210869 10:-0.159738 11:0.260144 12:-0.197065 13:0.004874 14:0.001395 15:0.803574 16:0.212574 17:-0.157557 18:0.264536 19:-0.196071 20:0.00648 21:0.000419 
0 0 0 0 0 0 10.81286480513411 0 0 0 1.0617572344675 0.07993488543063118 0 0 0 0 0 1:0.812568 2:0.207773 3:-0.158571 4:0.255699 5:-0.195148 6:0.001557 7:0.000874 8:0.81158 9:0.206581 10:-0.157287 11:0.254542 12:-0.193803 13:0.0025 14:0.002823 15:0.80627 16:0.206802 17:-0.154901 18:0.256492 19:-0.19212 20:0.002964 21:0.004706 
0 0 -84.35052833083583 0 0 0 0 0 0 0 0 0 0 0 0 0 0 1:0.807666 2:0.213192 3:-0.159929 4:0.263961 5:-0.198014 6:0.002401 7:0.000932 8:0.808533 9:0.212627 10:-0.159958 11:0.262979 12:-0.197837 13:0.004363 14:0.000785 15:0.805028 16:0.211993 17:-0.157852 18:0.263336 19:-0.196082 20:0.00486 21:0.000706 
-556.3342008093144 0 0 0 0 0 4.351868119458668 54.64662711247535 0 0 19.22970843724607 0 0 0 0 0 0 1:0.815201 2:0.190034 3:-0.147727 4:0.233114 5:-0.181216 6:0.006808 7:0.005212 8:0.806592 9:0.19287 10:-0.145556 11:0.239117 12:-0.180458 13:0.009202 14:0.007213 15:0.795816 16:0.195132 17:-0.142214 18:0.245198 19:-0.178702 20:0.008075 21:0.010643 
0 0 0 0 0 0 0 0 0 0 0 0 1824.616819023293 0 0 0 0 1:0.698204 2:0.198386 3:-0.09762 4:0.284138 5:-0.139816 6:0.010221 7:0.00664 8:0.717391 9:0.201561 10:-0.108937 11:0.280964 12:-0.151851 13:0.017902 14:0.013625 15:0.729396 16:0.203356 17:-0.116236 18:0.2788 19:-0.15936 20:0.021581 21:0.018123 
0 0 0 0 0 0 0 0 436.4309062999267 0 0 0 0 0 0 0 0 1:0.627453 2:0.177066 3:-0.049332 4:0.282198 5:-0.078623 6:0.003137 7:0.00249 8:0.628634 9:0.176621 10:-0.049592 11:0.28096 12:-0.078889 13:0.000651 14:0.001202 15:0.628283 16:0.177703 17:-0.0502 18:0.282839 19:-0.079901 20:0.002519 21:0.001397 
0 0 0 0 0 0 0 0 0 0 0 0 0 0 0 0 5.878408030282838 1:0.49514 2:0.169047 3:-0.044091 4:0.341413 5:-0.089047 6:0.009791 7:0.002633 8:0.488951 9:0.168953 10:-0.041468 11:0.345543 12:-0.08481 13:0.015772 14:0.002506 15:0.494117 16:0.170614 17:-0.039906 18:0.34529 19:-0.080763 20:0.011987 21:0.000924 
0 0 0 0 0 0 0 21.78773081143051 593.9721183825711 0 0 0 0 0 0 0 463.757094056566 1:0.485908 2:0.158396 3:-0.036174 4:0.32598 5:-0.074446 6:0.001661 7:0.004419 8:0.489951 9:0.162622 10:-0.037392 11:0.331914 12:-0.076317 13:0.006397 14:0.00518 15:0.493905 16:0.167357 17:-0.038772 18:0.338844 19:-0.0785 20:0.010749 21:0.002584 
0 0 -1.021837220233846 0 0 0 0 0 0 0 0 0 0 0 0 0 0 1:0.508446 2:0.120945 3:0.038489 4:0.237871 5:0.0757 6:0.049513 7:0.055588 8:0.506406 9:0.118554 10:0.039352 11:0.234109 12:0.077708 13:0.038731 14:0.035583 15:0.549553 16:0.11345 17:0.024694 18:0.20644 19:0.044934 20:0.019778 21:0.016417 
0 0 -114.8185035822024 0 0 0 0 0 0 0 0 0 0 0 0 0 0 1:0.38357 2:0.125872 3:0.072016 4:0.32816 5:0.187753 6:0.02066 7:0.024615 8:0.472836 9:0.122419 10:0.047853 11:0.258905 12:0.101205 13:0.008252 14:0.00454 15:0.542685 16:0.115863 17:0.025656 18:0.2135 19:0.047276 20:0.008339 21:0.004598 
0 0 0 0 0 0 0 0 0 0 0 0 0 0 0.1028310340117845 0 0 1:0.327802 2:0.124666 3:0.072758 4:0.380307 5:0.221958 6:0.012002 7:0.01762 8:0.447935 9:0.12086 10:0.043581 11:0.269816 12:0.097293 13:0.030992 14:0.027636 15:0.546651 16:0.111827 17:0.015774 18:0.204567 19:0.028857 20:0.016035 21:0.020051 
0 0 -34.29638983475295 0 0 0 0 0 0 0 0 0 0 0 0 0 0 1:0.514489 2:0.10471 3:0.025961 4:0.203523 5:0.05046 6:0.028199 7:0.031089 8:0.507991 9:0.101426 10:0.023601 11:0.199662 12:0.046459 13:0.029208 14:0.018061 15:0.544383 16:0.098694 17:0.009625 18:0.181294 19:0.01768 20:0.027639 21:0.022267 
0 -1.206731589878193 0 0 0 0 0 0 0 0 0 0 0 0 0.5730847736763464 0 0 1:0.477014 2:0.10161 3:0.028112 4:0.213013 5:0.058932 6:0.026603 7:0.044007 8:0.522406 9:0.099609 10:0.015553 11:0.190674 12:0.029771 13:0.034091 14:0.0389 15:0.54414 16:0.097367 17:0.007371 18:0.178937 19:0.013546 20:0.029019 21:0.029809 
0 0 -233.8933113124385 0 0 0 0 0 0 0 0 0 0 0 0 0 0 1:0.611077 2:0.113178 3:0.000684 4:0.185211 5:0.00112 6:0.015076 7:0.019698 8:0.553665 9:0.119015 10:0.020879 11:0.214959 12:0.03771 13:0.023902 14:0.032956 15:0.558328 16:0.118968 17:0.018006 18:0.213079 19:0.03225 20:0.006695 21:0.021637 
0 0 -513.967966536466 0 0 0 0 0 0 0 0 0 0 0 0 0 0 1:0.53549 2:0.120204 3:0.030018 4:0.224474 5:0.056057 6:0.010697 7:0.017635 8:0.556557 9:0.116655 10:0.020883 11:0.209602 12:0.037523 13:0.014772 14:0.019594 15:0.554126 16:0.117685 17:0.019002 18:0.21238 19:0.034292 20:0.013774 21:0.007746 
0 0 0 0 0 0 0 0 0 0 0 0 0 0.5104366435043055 0.211993598233804 0 0 1:0.903562 2:0.061107 3:-0.101844 4:0.06763 5:-0.112714 6:0.008636 7:0.005565 8:0.814821 9:0.067767 10:-0.081604 11:0.083168 12:-0.100149 13:0.007261 14:0.006668 15:0.673514 16:0.073399 17:-0.053447 18:0.108979 19:-0.079355 20:0.008003 21:0.013385 
0 0 -101.2014254610623 0.5077717632899899 0 0 15.8684388074649 0 0 11.21613089677414 0 4.461054196306729 0 0.2679345510204057 0 9.475452589072743 0 1:0.911986 2:0.057054 3:-0.103482 4:0.06256 5:-0.113469 6:0.009459 7:0.00867 8:0.842673 9:0.071221 10:-0.083214 11:0.084518 12:-0.09875 13:0.010407 14:0.00673 15:0.731548 16:0.079474 17:-0.058418 18:0.108638 19:-0.079855 20:0.008788 21:0.011958 
-141.153821520671 0 0 0 0 0 0 0 0 0 15.18683569672277 0 0 0 0 0 0 1:0.817276 2:0.083183 3:-0.076074 4:0.101781 5:-0.093082 6:0.014122 7:0.002877 8:0.811343 9:0.082599 10:-0.07333 11:0.101805 12:-0.090381 13:0.018147 14:0.007719 15:0.748445 16:0.087212 17:-0.056598 18:0.116524 19:-0.075621 20:0.019641 21:0.014706 
0 0 0 3.493018372851378 4.453190726070453 0 0 0 0 0 0 0 0 0 0 0 0 1:0.888697 2:0.065079 3:-0.101087 4:0.07323 5:-0.113747 6:0.009831 7:0.005052 8:0.765588 9:0.06773 10:-0.074363 11:0.088468 12:-0.097132 13:0.017254 14:0.012294 15:0.646911 16:0.07114 17:-0.053624 18:0.109968 19:-0.082893 20:0.01413 21:0.00142 
0 0 0 0 0 0 19.8070365654742 0 0 0 29.97769104706681 0 0 0 0 6.95003989286518 0 1:0.804291 2:0.075251 3:-0.066458 4:0.093562 5:-0.08263 6:0.0198 7:0.020159 8:0.802922 9:0.07543 10:-0.073323 11:0.093945 12:-0.09132 13:0.014627 14:0.011394 15:0.711804 16:0.078752 17:-0.057932 18:0.110636 19:-0.081388 20:0.009864 21:0.005788 
0 -0.396699456114018 0 0 0 0 1.073402480760059 64.68695151418388 371.5755771982285 0 2.832875921856711 0 0 0.6354986197535456 0.6855588274638099 5.317301740751046 714.4558869103734 1:0.751755 2:0.075734 3:-0.067338 4:0.100743 5:-0.089574 6:0.017301 7:0.014571 8:0.665408 9:0.071849 10:-0.0545 11:0.107978 12:-0.081905 13:0.027087 14:0.018234 15:0.600487 16:0.070772 17:-0.048092 18:0.117857 19:-0.080089 20:0.02498 21:0.009094 
0 0 0 0 0 0 0 2.426365243136058 488.9851778665435 0 0 0 0 0 0 0 0 1:0.742698 2:0.08673 3:-0.048581 4:0.116778 5:-0.065412 6:0.002563 7:0.010447 8:0.753165 9:0.081017 10:-0.061842 11:0.107569 12:-0.08211 13:0.010495 14:0.004199 15:0.675832 16:0.079616 17:-0.052662 18:0.117804 19:-0.077922 20:0.015293 21:0.00936 
0 0 0 0 10725.13347266524 0 0 0 0 0 0 0 0 0 0 0 0 1:0.627574 2:0.13442 3:-0.181072 4:0.21419 5:-0.288527 6:0.009618 7:0.007998 8:0.638239 9:0.135761 10:-0.182906 11:0.212712 12:-0.286579 13:0.003454 14:0.004178 15:0.63865 16:0.136179 17:-0.182614 18:0.213229 19:-0.285937 20:0.001646 21:0.002273 
0 0 0 0 15720.38807625202 0 0 0 0 0 0 0 0 0 0 0 0 1:0.666692 2:0.137189 3:-0.186734 4:0.205776 5:-0.28009 6:0.005503 7:0.003159 8:0.646419 9:0.136158 10:-0.183359 11:0.210635 12:-0.283654 13:0.007548 14:0.004604 15:0.640896 16:0.136357 17:-0.182358 18:0.212759 19:-0.284535 20:0.007093 21:0.003535 
0 0 -25.90777780281752 0 0 0 0 0 0 0 0 0 0 0 0 0 0 1:0.626189 2:0.139898 3:-0.173991 4:0.223412 5:-0.277858 6:0.001555 7:0.001371 8:0.63894 9:0.140438 10:-0.176529 11:0.219798 12:-0.276285 13:0.002044 14:0.001393 15:0.635979 16:0.13976 17:-0.176558 18:0.219756 19:-0.277617 20:0.002231 21:0.001058 
0 0 0 0 0 0 0 0 0 0 0 0 2.194068955233753 0 0 0 0 1:0.629654 2:0.142421 3:-0.177453 4:0.226189 5:-0.281827 6:0.004421 7:0.002935 8:0.634271 9:0.14186 10:-0.177863 11:0.223658 12:-0.280421 13:0.00399 14:0.002578 15:0.62979 16:0.139917 17:-0.176243 18:0.222164 19:-0.279845 20:0.003159 21:0.002302 
0 0 0 0 0 0 0 0 0 0 0 0 1.403495006497655 0 0 0 0 1:0.655406 2:0.143275 3:-0.181446 4:0.218604 5:-0.276846 6:0.002793 7:0.001597 8:0.642038 9:0.141713 10:-0.178882 11:0.220723 12:-0.278616 13:0.002465 14:0.001223 15:0.629462 16:0.139216 17:-0.175977 18:0.221167 19:-0.279567 20:0.004069 21:0.002415 
0 0 -33.29800412709021 -10.39045579528593 0 0 0 0 0 0 0 0 0 0 0 0 0 1:0.674234 2:0.139361 3:-0.181731 4:0.206695 5:-0.269537 6:0.007375 7:0.005307 8:0.641912 9:0.137734 10:-0.176551 11:0.214568 12:-0.27504 13:0.00508 14:0.004286 15:0.623474 16:0.136756 17:-0.173528 18:0.219345 19:-0.278325 20:0.003566 21:0.003511 
0 0 0 0 4467.18514324646 0 0 0 0 0 0 0 0 0 0 2.296938566268967 0 1:0.485702 2:0.093527 3:-0.128063 4:0.19256 5:-0.263666 6:0.003616 7:0.002535 8:0.471798 9:0.093006 10:-0.126408 11:0.197131 12:-0.267929 13:0.005469 14:0.001877 15:0.451405 16:0.093221 17:-0.124432 18:0.206513 19:-0.275655 20:0.011334 21:0.004879 
0 0 0 0 0 0 12.35884973857922 0 0 0 2.009586780475161 0 0 0 0 5.474089522744931 0 1:0.477634 2:0.093123 3:-0.126755 4:0.194967 5:-0.265382 6:0.000243 7:0.000163 8:0.464831 9:0.092638 10:-0.125027 11:0.199293 12:-0.268972 13:0.001826 14:0.000481 15:0.454514 16:0.09256 17:-0.12365 18:0.203646 19:-0.272049 20:0.00369 21:0.001454 
-0.2033319532873822 0 0 0 0 0.4607173627407384 0 2.284387624337363 13.20671678240466 0 0 0 0 0 0 0 0 1:0.426753 2:0.093377 3:-0.112451 4:0.218808 5:-0.263505 6:0.003944 7:0.003512 8:0.440474 9:0.094595 10:-0.116721 11:0.214757 12:-0.264989 13:0.00096 14:0.004817 15:0.450691 16:0.09603 17:-0.120767 18:0.213074 19:-0.26796 20:0.003517 21:0.00256 
0 0 0 0 3983.812794898088 0 0 0 0 0 0 0 0 0 0 0 0 1:0.465265 2:0.092618 3:-0.124901 4:0.199065 5:-0.268452 6:0.003105 7:0.002266 8:0.453754 9:0.092644 10:-0.123463 11:0.204173 12:-0.272093 13:0.008416 14:0.005523 15:0.444215 16:0.09346 17:-0.122916 18:0.210393 19:-0.276704 20:0.014084 21:0.007054 
0 0 0 0 0 0 0 0 0 0 5.754447026250361 0 0 0 0 0 0 1:0.496867 2:0.095103 3:-0.13053 4:0.191406 5:-0.262706 6:0.001631 7:0.001228 8:0.470641 9:0.094268 10:-0.126541 11:0.200297 12:-0.26887 13:0.00126 14:0.001064 15:0.456417 16:0.094193 17:-0.124052 18:0.206375 19:-0.271794 20:0.005174 21:0.002898 
0 0 0 0 0 0 0 19.14657568035771 0 0 0 0 0 0 0 0 13.42363179387362 1:0.465543 2:0.09906 3:-0.120388 4:0.212784 5:-0.258598 6:0.001916 7:0.000737 8:0.457096 9:0.097886 10:-0.12011 11:0.214147 12:-0.262767 13:0.003768 14:0.002929 15:0.454945 16:0.097699 17:-0.121583 18:0.214749 19:-0.267247 20:0.003871 21:0.001017 
0 0 0 0 0 1.317623328111043 0 0 0 0 0 0 0 0 0 0 0 1:0.348686 2:0.096063 3:-0.109512 4:0.275501 5:-0.314071 6:0.019313 7:0.009437 8:0.367704 9:0.096087 10:-0.11228 11:0.261316 12:-0.305353 13:0.024371 14:0.012758 15:0.396736 16:0.096968 17:-0.117313 18:0.244415 19:-0.295695 20:0.020121 21:0.011418 
0 0 0 0 0 0 0 0 0 0 0 0 0 0.6471297617869397 0 0 0 1:0.386874 2:0.077976 3:-0.110685 4:0.201553 5:-0.286102 6:0.010485 7:0.005374 8:0.390233 9:0.080621 10:-0.113326 11:0.206597 12:-0.290406 13:0.011066 14:0.007222 15:0.387949 16:0.083433 17:-0.114855 18:0.215062 19:-0.296056 20:0.009454 21:0.007198 
0 -0.9958824867293361 0 0 5029.804463233116 0 0 0 0 0 0 0 0 0 0.7926079468612245 0 0 1:0.364295 2:0.076509 3:-0.107575 4:0.210018 5:-0.295296 6:0.018403 7:0.010305 8:0.382516 9:0.07948 10:-0.111486 11:0.207781 12:-0.291454 13:0.017507 14:0.011494 15:0.389733 16:0.082653 17:-0.114217 18:0.212075 19:-0.293063 20:0.009083 21:0.007959 
0 0 0 0 2259.573592836879 0 0 0 0 0 0 0 0 0 0 0 0 1:0.471735 2:0.096669 3:-0.137001 4:0.204922 5:-0.290419 6:0.00984 7:0.009629 8:0.431242 9:0.09457 10:-0.129948 11:0.219297 12:-0.301334 13:0.009 14:0.009959 15:0.411568 16:0.092823 17:-0.125991 18:0.225534 19:-0.306125 20:0.008582 21:0.009464 
0 0 0 0 0 0 0 0 0 0 0 0 0 0.7906470691816012 0 7.425665657566064 0 1:0.922015 2:0.128441 3:-0.236327 4:0.139305 5:-0.256316 6:0.000521 7:0.000739 8:0.917316 9:0.131012 10:-0.235676 11:0.142821 12:-0.256919 13:0.001183 14:0.001502 15:0.912834 16:0.132972 17:-0.2342 18:0.145669 19:-0.256564 20:0.001835 21:0.001535 
0 -0.2406663901921809 0 0 0 0 10.88538519029146 34.68409903912011 12.81558622215798 16.18989571988031 6.849536418133483 8.592048949316279 0 0 0.5981833134788431 0 0 1:0.930407 2:0.132188 3:-0.228392 4:0.142076 5:-0.245475 6:0.001401 7:0.001527 8:0.926771 9:0.134487 10:-0.229961 11:0.145113 12:-0.248132 13:0.001483 14:0.001699 15:0.921562 16:0.13758 17:-0.232524 18:0.14929 19:-0.252315 20:0.002792 21:0.000785 
-54.31330100850735 0 -161.3871829935668 0 0 0.536775961445949 0 0 0 0 0 0 0 0 0 0 5.220640329156348 1:0.930643 2:0.132107 3:-0.228229 4:0.141952 5:-0.245238 6:0.002591 7:0.000661 8:0.926207 9:0.135539 10:-0.229623 11:0.146337 12:-0.247918 13:0.004228 14:0.00153 15:0.920401 16:0.138758 17:-0.23264 18:0.150758 19:-0.25276 20:0.004413 21:0.00263 
0 0 0 -12.24308941718462 0 0 0 0 0 0 0 0 0 0 0 0 0 1:0.909303 2:0.152544 3:-0.231893 4:0.167759 5:-0.255023 6:0.001414 7:0.001356 8:0.907885 9:0.152386 10:-0.233416 11:0.167848 12:-0.257099 13:0.001686 14:0.001619 15:0.907651 16:0.150254 17:-0.235436 18:0.165542 19:-0.259391 20:0.003118 21:0.002096 
0 0 0 0 0 0 0 0 0 0 0 0 23.37091745714968 0 0 0 0 1:0.896691 2:0.161012 3:-0.237124 4:0.179562 5:-0.264443 6:0.001468 7:0.001185 8:0.898071 9:0.158738 10:-0.237682 11:0.176755 12:-0.264659 13:0.002122 14:0.002231 15:0.901488 16:0.154418 17:-0.237988 18:0.171293 19:-0.263994 20:0.00323 21:0.00295 
0 0 0 0 2799.764259321223 0 0 0 0 0 0 0 0 0 0 0 0 1:0.869057 2:0.144494 3:-0.24738 4:0.166265 5:-0.284653 6:0.000673 7:0.001824 8:0.868748 9:0.145425 10:-0.247187 11:0.167396 12:-0.284533 13:0.001549 14:0.002612 15:0.872146 16:0.147363 17:-0.246729 18:0.168966 19:-0.282898 20:0.00455 21:0.004539 
0 0 0 0 1352.67326061726 0 0 0 0 0 0 0 0 0 0 0 0 1:0.85796 2:0.15426 3:-0.249112 4:0.179799 5:-0.290354 6:0.007068 7:0.001053 8:0.862674 9:0.154722 10:-0.248472 11:0.179351 12:-0.288025 13:0.008132 14:0.001727 15:0.867881 16:0.155299 17:-0.247364 18:0.17894 19:-0.28502 20:0.008619 21:0.001988 
0 0 -2.908190814825237 0 0 0 0 0 0 0.1566139169571894 0 0.1740603291088041 0 0.2835147186984624 0.2427217232469976 0 0 1:0.176333 2:0.055599 3:-0.099261 4:0.315305 5:-0.562917 6:0.002997 7:0.014132 8:0.207003 9:0.062478 10:-0.105225 11:0.301823 12:-0.508327 13:0.005113 14:0.008296 15:0.225604 16:0.065521 17:-0.108483 18:0.290423 19:-0.480855 20:0.000377 21:0.01048 
0 -0.05312796136125117 0 0 0 0 0 0 0 0 0 0 0 0 0 0 0 1:0.272125 2:0.06939 3:-0.107139 4:0.254992 5:-0.393713 6:0.012926 7:0.016907 8:0.2443 9:0.066409 10:-0.102831 11:0.271836 12:-0.420919 13:0.018068 14:0.028196 15:0.241546 16:0.06596 17:-0.103319 18:0.273073 19:-0.427742 20:0.010467 21:0.011997 
0 -2.321822758519269 0 0 0 0 0 0 0 0 0 0 0 0 0 0 0 1:0.24806 2:0.068649 3:-0.099853 4:0.276745 5:-0.402535 6:0.015112 7:0.013753 8:0.267559 9:0.070631 10:-0.104443 11:0.263982 12:-0.390353 13:0.007082 14:0.00686 15:0.286847 16:0.072784 17:-0.109535 18:0.253737 19:-0.381859 20:0.01178 21:0.015593 
0 -0.001290290202347808 0 0 0 0 0 0 0 0 0 0 0 0 0 0 0 1:0.203364 2:0.05746 3:-0.098475 4:0.282549 5:-0.484231 6:0.040437 7:0.062405 8:0.226495 9:0.061256 10:-0.102731 11:0.270449 12:-0.45357 13:0.039771 14:0.033863 15:0.244058 16:0.06464 17:-0.105841 18:0.264855 19:-0.433672 20:0.028226 21:0.016777 
0 0 0 0 0 0 0 0 0 0 0 0 0 0 0 0 5.105810817246795 1:0.538891 2:0.1124 3:-0.137703 4:0.208576 5:-0.25553 6:0.000743 7:0.001538 8:0.536766 9:0.112402 10:-0.138849 11:0.209406 12:-0.258677 13:0.002777 14:0.00262 15:0.533604 16:0.112983 17:-0.140202 18:0.211737 19:-0.262745 20:0.004067 21:0.003627 
0 0 -8.408951190973925 0 0 0 0 0 0 0 9.918831033207539 0 0 0 0 0 0 1:0.548367 2:0.11291 3:-0.140727 4:0.205902 5:-0.256629 6:0.00044 7:0.00174 8:0.544234 9:0.113012 10:-0.140511 11:0.207653 12:-0.258182 13:0.000177 14:0.001123 15:0.539125 16:0.11308 17:-0.140806 18:0.209747 19:-0.261174 20:0.000995 21:0.000798 
0 0 0 0 0 0 0 19.54120024536764 0 0 9.390746478519471 0 0 0 0 74.66796963062849 0 1:0.669291 2:0.069125 3:-0.155362 4:0.103281 5:-0.232129 6:0.003629 7:0.004489 8:0.664988 9:0.069008 10:-0.154706 11:0.103773 12:-0.232645 13:0.002705 14:0.003158 15:0.648524 16:0.069713 17:-0.152603 18:0.107495 19:-0.235308 20:0.004505 21:0.00291 
0 0 0 0 0 0 0 0 0 0 0.3617526026152779 0 0 0 0 0 0 1:0.743513 2:0.072355 3:-0.16713 4:0.097315 5:-0.224784 6:0.002647 7:0.003261 8:0.682423 9:0.06988 10:-0.157281 11:0.1024 12:-0.230474 13:0.002 14:0.001091 15:0.640052 16:0.068731 17:-0.150607 18:0.107383 19:-0.235305 20:0.003388 21:0.001402 
0 0 0 0 0 0 121.5176798089071 0 14.7512356389795 0 0 0 0 0 0 0 0 1:0.475368 2:0.050835 3:-0.110403 4:0.106937 5:-0.232248 6:0.00692 7:0.002876 8:0.45679 9:0.049006 10:-0.107165 11:0.107284 12:-0.234604 13:0.00938 14:0.004278 15:0.463572 16:0.049516 17:-0.108605 18:0.106815 19:-0.234278 20:0.008844 21:0.002017 
0 0 0 0 0 0 0 0 0 0 25.8400521888056 0 0 0 0 0 0 1:0.535716 2:0.059131 3:-0.121581 4:0.110378 5:-0.226951 6:0.003271 7:0.003825 8:0.510784 9:0.057169 10:-0.117442 11:0.111924 12:-0.229924 13:0.001752 14:0.002933 15:0.489074 16:0.055028 17:-0.114495 18:0.112515 19:-0.234106 20:0.003616 21:0.002501 
0 0 0 0 0 0 0 20.61609379982498 0 0 13.51216152076839 0 0 0 0 0 0 1:0.527861 2:0.056865 3:-0.119681 4:0.107727 5:-0.226728 6:0.001743 7:0.003451 8:0.507457 9:0.056345 10:-0.117175 11:0.111035 12:-0.230907 13:0.001504 14:0.003834 15:0.494395 16:0.055791 17:-0.116054 18:0.112847 19:-0.234739 20:0.002299 21:0.003042 
0 0 0 -4.285374921248007 0 0 0 29.86679859915327 0 0 0 0 0 0 0 0 2.030182830877658 1:0.707929 2:0.099259 3:-0.165324 4:0.14021 5:-0.233532 6:0.000991 7:0.001676 8:0.681277 9:0.097702 10:-0.163134 11:0.143411 12:-0.239453 13:0.001958 14:0.002594 15:0.660804 16:0.095485 17:-0.161542 18:0.144498 19:-0.244462 20:0.002048 21:0.003717 
-30.50484001180596 0 -92.65353682209367 0 -69.21691485018501 0 0 0 6.631043152429219 6.411670489580194 0 5.283152028494416 0 0.1735278529463049 0.234771649961293 0 0 1:0.909975 2:0.140365 3:-0.226916 4:0.154252 5:-0.249365 6:0.002642 7:0.002183 8:0.860638 9:0.140144 10:-0.223111 11:0.162837 12:-0.259239 13:0.001354 14:0.000369 15:0.818066 16:0.139452 17:-0.217792 18:0.170465 19:-0.266228 20:0.008408 21:0.006146 
0 0 0 0 -1801.503739129297 0 0 0 0 0 0 0 19.06562232804413 0 0 0 0 1:0.851289 2:0.184517 3:-0.2359 4:0.21675 5:-0.277109 6:0.009504 7:0.011504 8:0.821444 9:0.180474 10:-0.229414 11:0.219703 12:-0.279282 13:0.009815 14:0.00772 15:0.799583 16:0.175268 17:-0.22615 18:0.219199 19:-0.282835 20:0.008025 21:0.002342 
0 0 0 0 -1924.319221844887 0 0 0 0 0 0 0 0 0 0 0 0 1:0.804422 2:0.139356 3:-0.218636 4:0.173238 5:-0.271793 6:0.003534 7:0.004683 8:0.793526 9:0.13699 10:-0.214464 11:0.172634 12:-0.270267 13:0.005657 14:0.008491 15:0.780269 16:0.135158 17:-0.211298 18:0.17322 19:-0.270801 20:0.006408 21:0.003359 
0 0 0 -20.47175934706645 0 0.6496902845007091 0 0 0 0 0 0 15.54623544545104 0 0 0 5.33087888411928 1:0.891878 2:0.175392 3:-0.219709 4:0.196655 5:-0.246344 6:0.012156 7:0.013342 8:0.832945 9:0.17499 10:-0.22404 11:0.210086 12:-0.268973 13:0.013544 14:0.008866 15:0.789725 16:0.17253 17:-0.223252 18:0.218468 19:-0.282696 20:0.009665 21:0.003701 
0 0 0 0 -8078.355678003629 0 0 0 0 0 0 0 0 0 0 0 0 1:0.750182 2:0.138628 3:-0.208148 4:0.184793 5:-0.277464 6:0.007128 7:0.002439 8:0.756134 9:0.137393 10:-0.208265 11:0.181705 12:-0.275434 13:0.008629 14:0.003992 15:0.751576 16:0.134815 17:-0.20632 18:0.179377 19:-0.274516 20:0.012732 21:0.004845 
0 0 0 0 -11444.63497423693 0 0 0 0 0 0 0 0 0 0 0 0 1:0.598441 2:0.126378 3:-0.174016 4:0.211179 5:-0.290782 6:0.008538 7:0.007957 8:0.574911 9:0.126329 10:-0.171435 11:0.219737 12:-0.298193 13:0.006453 14:0.007269 15:0.572994 16:0.130233 17:-0.174278 18:0.227286 19:-0.304153 20:0.002352 21:0.005964 
0 0 0 0 -751.2580006276805 0 0 0 0 0 0 0 0 0 0 0 0 1:0.615222 2:0.148664 3:-0.191261 4:0.241643 5:-0.310881 6:0.017487 7:0.006952 8:0.667208 9:0.154912 10:-0.200942 11:0.232179 12:-0.301169 13:0.010842 14:0.007893 15:0.688364 16:0.161456 17:-0.207194 18:0.234551 19:-0.300995 20:0.011933 21:0.002506 
0 0 0 0 -7844.646541896533 0 0 0 0 0 0 0 0 0 0 0 0 1:0.614962 2:0.13383 3:-0.179685 4:0.217622 5:-0.292188 6:0.007094 7:0.004869 8:0.628666 9:0.137667 10:-0.18364 11:0.218983 12:-0.292111 13:0.002128 14:0.004239 15:0.617593 16:0.140469 17:-0.184018 18:0.227445 19:-0.297959 20:0.001744 21:0.009738 
0 0 0 0 -118.5582779707135 0 0 0 0 0 0 0 0 0 0 0 0 1:0.695182 2:0.169675 3:-0.207245 4:0.244073 5:-0.298117 6:0.007522 7:0.01363 8:0.690772 9:0.168662 10:-0.208144 11:0.244165 12:-0.301321 13:0.013231 14:0.003461 15:0.689059 16:0.165362 17:-0.206851 18:0.239982 19:-0.300194 20:0.010607 21:0.004214 
0 0 -21.97587951154374 -0.4634385697885392 0 0 0 0 0 0 0 0 0 0 0 0 0 1:0.620155 2:0.184873 3:-0.208723 4:0.298108 5:-0.336565 6:0.027468 7:0.020994 8:0.70022 9:0.186691 10:-0.218734 11:0.266618 12:-0.312379 13:0.021622 14:0.013673 15:0.722179 16:0.180114 17:-0.218264 18:0.249404 19:-0.30223 20:0.012233 21:0.004264 
0 0 0 0 -1026.912420076501 0 0 0 0 0 0 0 0 0 0 0 0 1:0.545991 2:0.109115 3:-0.157992 4:0.199848 5:-0.289368 6:0.001381 7:0.00649 8:0.428967 9:0.103699 10:-0.139779 11:0.241741 12:-0.325849 13:0.009128 14:0.006543 15:0.454598 16:0.108668 17:-0.146383 18:0.239041 19:-0.322005 20:0.013009 21:0.00894 
0 0 0 0 -134.8765451110742 0 0 0 0 0 0 0 0 0 0 0 0 1:0.268867 2:0.085302 3:-0.109368 4:0.317263 5:-0.406774 6:0.04741 7:0.053529 8:0.362814 9:0.093674 10:-0.126251 11:0.258187 12:-0.347977 13:0.029848 14:0.019673 15:0.458888 16:0.106332 17:-0.145506 18:0.231718 19:-0.317084 20:0.02221 21:0.011605 
0 0 0 0 -318.9120806232783 0 0 0 0 0 0 0 0 0 0 0 0 1:0.364393 2:0.09458 3:-0.138728 4:0.259555 5:-0.38071 6:0.021076 7:0.019187 8:0.398694 9:0.096448 10:-0.144602 11:0.241909 12:-0.362689 13:0.015582 14:0.010357 15:0.440447 16:0.1027 17:-0.152984 18:0.233173 19:-0.347337 20:0.012672 21:0.005845 
0 0 -3.567344809502018 0 0 0 0 0 0 0 0 0 0 0 0 0 0 1:0.391382 2:0.138697 3:-0.162908 4:0.354377 5:-0.416238 6:0.023124 7:0.02975 8:0.522281 9:0.151007 10:-0.184585 11:0.28913 12:-0.353421 13:0.011911 14:0.014897 15:0.627675 16:0.158171 17:-0.200726 18:0.251995 19:-0.319793 20:0.006783 21:0.01042 
0 0 0 0 -11354.23317019763 0 0 0 0 0 0 0 0 0 0 0 0 1:0.450419 2:0.087103 3:-0.117952 4:0.193383 5:-0.261871 6:0.005712 7:0.00331 8:0.44016 9:0.085305 10:-0.115632 11:0.193804 12:-0.262705 13:0.008932 14:0.006625 15:0.428291 16:0.083681 17:-0.113222 18:0.195384 19:-0.264359 20:0.009927 21:0.007391 
0 0 0 0 -1470.907498501905 0 0 0 0 0 0 0 0 0 0 0 0 1:0.316993 2:0.074726 3:-0.094146 4:0.235734 5:-0.296997 6:0.009329 7:0.006967 8:0.350419 9:0.076438 10:-0.099469 11:0.218132 12:-0.283857 13:0.007994 14:0.005951 15:0.395526 16:0.079195 17:-0.106884 18:0.200226 19:-0.270233 20:0.006774 21:0.005129 
0 0 0 0 0 0 0 0 0 0 0 0 0 0 0 0 0.2886357130835535 1:0.48478 2:0.082198 3:-0.112376 4:0.169558 5:-0.231807 6:0.006949 7:0.001791 8:0.442139 9:0.080067 10:-0.107226 11:0.18109 12:-0.242516 13:0.012421 14:0.003554 15:0.432724 16:0.079608 17:-0.107395 18:0.18397 19:-0.248184 20:0.003344 21:0.001095 
0 0 0 -1.614553350614399 0 0 0 25.4142175989896 0 0 17.54014193939118 0 0 0 0 0 19.05557330551172 1:0.44223 2:0.079687 3:-0.10499 4:0.180193 5:-0.23741 6:0.010706 7:0.006273 8:0.442403 9:0.079823 10:-0.106472 11:0.18043 12:-0.240668 13:0.006144 14:0.004967 15:0.440957 16:0.07978 17:-0.108395 18:0.180924 19:-0.245818 20:0.004615 21:0.00318 
0 -2.018980142504715 0 0 0 0 0 0 9.855457380732721 0 0 0 0 0 0 0 0 1:0.356642 2:0.064427 3:-0.089529 4:0.18065 5:-0.251033 6:0.005587 7:0.005669 8:0.34659 9:0.063816 10:-0.088954 11:0.184124 12:-0.256654 13:0.000845 14:0.001631 15:0.357496 16:0.064698 17:-0.093084 18:0.180975 19:-0.260377 20:0.00402 21:0.001388 
0 0 0 0 0 1.697551363117711 0 0 0 0 0 0 0 0 0 0 0 1:0.319949 2:0.072602 3:-0.086689 4:0.226918 5:-0.270947 6:0.021588 7:0.017294 8:0.359967 9:0.074736 10:-0.093614 11:0.207619 12:-0.260062 13:0.011411 14:0.012399 15:0.410905 16:0.07737 17:-0.103388 18:0.188291 19:-0.25161 20:0.003829 21:0.006873 
0 0 -95.87892686459669 0 0 0 0 0 0 0 0 0 0 1.766837265533341 0.9054389810013698 71.76228683195259 0 1:0.542129 2:0.010959 3:-0.139166 4:0.020215 5:-0.256702 6:0.001608 7:0.000755 8:0.533754 9:0.010568 10:-0.137622 11:0.0198 12:-0.257838 13:0.004274 14:0.005971 15:0.537942 16:0.011957 17:-0.138198 18:0.022228 19:-0.256902 20:0.006876 21:0.004927 
0 0 0 0 0 0 0 0 0 3.135402801158165 0 0 0 0 0 0 0 1:0.634808 2:0.027837 3:-0.166448 4:0.043851 5:-0.262202 6:0.004681 7:0.007002 8:0.626612 9:0.02837 10:-0.163737 11:0.045275 12:-0.261306 13:0.005522 14:0.007696 15:0.598582 16:0.027758 17:-0.157465 18:0.046373 19:-0.263064 20:0.006016 21:0.00452 
-0.07222904407756695 -7.89127327194057 -49.39093502290304 0 0 0 0 0 1.21355370099377 0.2442015707654776 0 0.2628863403466923 0 0.5247647691973294 1.136411831892793 0 0 1:0.158896 2:-0.000945 3:-0.052065 4:-0.005949 5:-0.327669 6:0.020999 7:0.00778 8:0.167087 9:0.00082 10:-0.054844 11:0.004905 12:-0.328237 13:0.033181 14:0.011554 15:0.224497 16:0.003918 17:-0.067832 18:0.017452 19:-0.30215 20:0.038934 21:0.014094 
0 0 0 -42.21278416593679 0 0 0 0 0 0 0 0 0 0 0 0 0 1:0.427735 2:0.191896 3:0.032684 4:0.448633 5:0.076412 6:0.028219 7:0.008234 8:0.421558 9:0.198693 10:0.030465 11:0.47133 12:0.072267 13:0.016898 14:0.018883 15:0.425487 16:0.202548 17:0.024584 18:0.476038 19:0.057778 20:0.022014 21:0.051969 
-1.866773692015125 -0.2952749977353694 0 0 -2.315116652297731 -2.34724164761842 1.480962436717448 3.463901071454217 4.354584723334911 0.7993947088423085 1.969609596496865 0.7627695396666632 1.973935840557641 0 0 1.149573138158774 8.605907895063218 1:0.430778 2:0.192395 3:0.029285 4:0.446622 5:0.067981 6:0.018562 7:0.007092 8:0.42292 9:0.199872 10:0.028193 11:0.472599 12:0.066662 13:0.016374 14:0.018428 15:0.424039 16:0.203339 17:0.024668 18:0.47953 19:0.058174 20:0.017569 21:0.050671 
0 0 0 0 0 0 0 0 0 0 0 0 0 0.4188837064771948 0.1199935537945396 0 0 1:0.424529 2:0.201452 3:0.02608 4:0.47453 5:0.061433 6:0.018227 7:0.006053 8:0.422772 9:0.202532 10:0.026406 11:0.479058 12:0.06246 13:0.013899 14:0.017908 15:0.42304 16:0.20385 17:0.024975 18:0.481871 19:0.059037 20:0.011572 21:0.049968 
0 0 0 -10.90394876918517 0 0 0 0 0 0 0 0 0 0 0 0 0 1:0.389967 2:0.166623 3:0.061674 4:0.427274 5:0.158152 6:0.013033 7:0.011013 8:0.390657 9:0.160815 10:0.060987 11:0.411652 12:0.156114 13:0.01931 14:0.020673 15:0.387282 16:0.16143 17:0.058754 18:0.41683 19:0.15171 20:0.011278 21:0.019045 
0 0 0 0 0 0 0.6443726894998942 0 0.1805640586114969 0.5676337174729127 0.4408627594805569 0.4034446139438932 0 0.7094463604721523 1.151712351969995 0.875404492982844 0 1:0.395733 2:0.138903 3:0.074501 4:0.351002 5:0.18826 6:0.00201 7:0.002703 8:0.39049 9:0.152744 10:0.069007 11:0.391161 12:0.17672 13:0.021412 14:0.001719 15:0.385434 16:0.16329 17:0.064729 18:0.423653 19:0.167938 20:0.029668 21:0.001606 
0 -1.003844570855967 0 0 0 0 0 0 0 0 0 0 0 0 0 0 0 1:0.383182 2:0.140056 3:0.074999 4:0.365508 5:0.195727 6:0.005332 7:0.006925 8:0.381766 9:0.150567 10:0.067336 11:0.394395 12:0.176381 13:0.019187 14:0.011983 15:0.378492 16:0.159664 17:0.060126 18:0.421842 19:0.158857 20:0.026867 21:0.016414 
0 0 0 -23.57290147616711 0 0 0 0 0 0 0 0 0 0 0 0 0 1:0.35662 2:0.174882 3:0.059038 4:0.490388 5:0.165549 6:0.062048 7:0.018019 8:0.360415 9:0.170522 10:0.058625 11:0.473125 12:0.162661 13:0.067252 14:0.019598 15:0.36596 16:0.16605 17:0.05723 18:0.453738 19:0.156384 20:0.039584 21:0.017359 
0 0 0 0 0 0 0 0 0 0 0 0 0 0 0 0 0.9973420963318648 1:0.363773 2:0.150421 3:0.062713 4:0.413501 5:0.172397 6:0.019696 7:0.010099 8:0.359531 9:0.157727 10:0.059087 11:0.438703 12:0.164343 13:0.035782 14:0.019809 15:0.356799 16:0.160731 17:0.057118 18:0.450479 19:0.160084 20:0.029673 21:0.02334 
0 -0.5433016094596624 -71.06104108907576 0 0 0 0 0 0 0 0 0 0 0 0 0 2.410250866035024 1:0.3527 2:0.15263 3:0.063987 4:0.432747 5:0.181419 6:0.012529 7:0.005246 8:0.354695 9:0.14957 10:0.06383 11:0.421685 12:0.179957 13:0.003536 14:0.015548 15:0.352994 16:0.152843 17:0.061195 18:0.432992 19:0.173361 20:0.00889 21:0.024151 
0 0 0 0 0 0 0 0 0 0 22646.48384553045 0 0 0 0 0 0 1:0.589689 2:0.054073 3:-0.091985 4:0.091698 5:-0.155989 6:0.002857 7:0.001468 8:0.589307 9:0.053845 10:-0.091776 11:0.091371 12:-0.155735 13:0.003021 14:0.00164 15:0.589426 16:0.053918 17:-0.092196 18:0.091475 19:-0.156417 20:0.003172 21:0.001349 
0 0 0 0 0 0 0 0 0 0 15412.03722101918 0 0 0 0 0 0 1:0.618731 2:0.059756 3:-0.095544 4:0.096578 5:-0.154419 6:0.002278 7:0.001141 8:0.613025 9:0.058582 10:-0.095178 11:0.095562 12:-0.15526 13:0.002607 14:0.000723 15:0.609113 16:0.058356 17:-0.09589 18:0.095805 19:-0.157426 20:0.003484 21:0.00113 
0 0 0 0 0 0 0 0 0 0 7692.244660654971 0 0 0 0 0 0 1:0.61574 2:0.060749 3:-0.095718 4:0.09866 5:-0.155452 6:0.002469 7:0.000807 8:0.615344 9:0.059616 10:-0.096066 11:0.096882 12:-0.156118 13:0.00344 14:0.001206 15:0.612448 16:0.059337 17:-0.096597 18:0.096886 19:-0.157723 20:0.004458 21:0.001754 
-41.45816148957168 0 0 0 0 0 0 0 0 0 0 4.143303443087476 0 0 0 0 0 1:0.879348 2:0.081325 3:-0.146197 4:0.092483 5:-0.166256 6:0.000231 7:0.001044 8:0.871797 9:0.079586 10:-0.144372 11:0.09129 12:-0.165603 13:0.000791 14:0.001187 15:0.863315 16:0.077662 17:-0.14319 18:0.089958 19:-0.165861 20:0.000555 21:0.000616 
0 0 -1411.753123024137 0 0 0 0 0 0 0 0 5.905849836784296 0 0 0.3419301908321094 0 0 1:0.878585 2:0.076765 3:-0.14262 4:0.087373 5:-0.162329 6:0.001816 7:0.001273 8:0.871422 9:0.076465 10:-0.142211 11:0.087748 12:-0.163194 13:0.002282 14:0.001533 15:0.862984 16:0.076554 17:-0.142152 18:0.088709 19:-0.164722 20:0.001554 21:0.001478 
0 0 0 0 0 0 0 0 0 0 10998.26191006153 0 0 0 0 0 0 1:0.844057 2:0.079352 3:-0.135011 4:0.094013 5:-0.159955 6:0.00098 7:0.000278 8:0.84519 9:0.079356 10:-0.135254 11:0.093892 12:-0.160028 13:0.000547 14:0.000366 15:0.844042 16:0.0788 17:-0.135656 18:0.093361 19:-0.160722 20:0.000719 21:0.000693 
0 0 0 0 -12.99817414968536 0 0 0 0 0 0 0 3.018930490320123 0 0 0 0 1:0.863153 2:0.08511 3:-0.145161 4:0.098604 5:-0.168175 6:0.000377 7:0.000463 8:0.861851 9:0.081973 10:-0.143962 11:0.095113 12:-0.167038 13:0.001342 14:0.000542 15:0.856458 16:0.079288 17:-0.142451 18:0.092577 19:-0.166326 20:0.00128 21:0.000494 
0 0 0 -18.85813393469023 0 0 -0.5793638665352492 0 297.7943590657408 0 0 0 0 0 0 0 0 1:0.863588 2:0.08136 3:-0.137711 4:0.094212 5:-0.159464 6:0.001414 7:4.6e-005 8:0.857694 9:0.080094 10:-0.137057 11:0.093383 12:-0.159797 13:0.000892 14:7.3e-005 15:0.850494 16:0.078964 17:-0.136448 18:0.092844 19:-0.160434 20:0.000855 21:0.000181 
0 0 0 0 0 0 0 0 0 0 1351.208924014675 0 0 0 0 0 0 1:0.861974 2:0.080474 3:-0.138011 4:0.093361 5:-0.160111 6:0.000971 7:0.000534 8:0.85638 9:0.080273 10:-0.137277 11:0.093735 12:-0.160299 13:0.000548 14:0.000774 15:0.847958 16:0.079409 17:-0.136588 18:0.093647 19:-0.161079 20:0.000767 21:0.001124 
0 0 0 0 0 0 0 0 0 28.74669391520518 0 0 0 0.1236039359881092 0.01914735604539793 0 0 1:0.858049 2:0.063181 3:-0.140516 4:0.073633 5:-0.163762 6:0.001854 7:0.001083 8:0.855735 9:0.064306 10:-0.140343 11:0.075147 12:-0.164003 13:0.003871 14:0.001622 15:0.849367 16:0.066778 17:-0.138711 18:0.078621 19:-0.16331 20:0.004082 21:0.001535 
0 0 0 0 0 -1.268564541817138 0 0 0 0 0 0 0 0 0 0 0 1:0.8318 2:0.077648 3:-0.144425 4:0.093349 5:-0.173629 6:0.000959 7:0.000515 8:0.827892 9:0.076047 10:-0.142878 11:0.091856 12:-0.17258 13:0.000815 14:0.000267 15:0.82323 16:0.074255 17:-0.141389 18:0.0902 19:-0.171749 20:0.001095 21:0.000235 
0 0 0 -33.05547684360173 0 0 0 0 0 0 0 0 4.990830723326746 0 0 0 20.5709844246651 1:0.767205 2:0.090791 3:-0.12873 4:0.11834 5:-0.167791 6:0.0004 7:0.000698 8:0.752953 9:0.087518 10:-0.12559 11:0.116234 12:-0.166797 13:0.000993 14:0.000571 15:0.724303 16:0.080591 17:-0.11994 18:0.111268 19:-0.165594 20:0.001927 21:0.000674 
0 0 0 0 0 0 0 809.3321812707469 1.702033157233161 0 25980.61966664072 0 0 0 0 0 4.853639379139669 1:0.707388 2:0.087527 3:-0.118273 4:0.123732 5:-0.167196 6:0.001351 7:0.001362 8:0.711085 9:0.084004 10:-0.117506 11:0.118135 12:-0.165249 13:0.00228 14:0.002015 15:0.693235 16:0.077044 17:-0.113357 18:0.111136 19:-0.163519 20:0.00342 21:0.00214 
0 0 0 0 0 0 0 0 0 0 9726.752891552033 0 0 0 0 0 0 1:0.685577 2:0.078487 3:-0.113627 4:0.114483 5:-0.165739 6:0.006415 7:0.001849 8:0.691335 9:0.077881 10:-0.113979 11:0.112652 12:-0.164868 13:0.008348 14:0.002486 15:0.684841 16:0.074822 17:-0.112192 18:0.109254 19:-0.163822 20:0.007008 21:0.00141 
0 0 0 0 0 0 0 0 0 0 26166.04971717576 0 0 0 0 0 0 1:0.676526 2:0.070176 3:-0.112203 4:0.103731 5:-0.165852 6:0.004347 7:0.004405 8:0.671086 9:0.070874 10:-0.111352 11:0.105612 12:-0.165928 13:0.006398 14:0.004659 15:0.681609 16:0.07174 17:-0.113166 18:0.105251 19:-0.166028 20:0.006372 21:0.002518 
0 0 0 0 0 0 0 0 0 0 9485.310391534207 0 0 0 0 0 0 1:0.651731 2:0.056824 3:-0.101916 4:0.087189 5:-0.156378 6:0.003637 7:0.001343 8:0.642857 9:0.056941 10:-0.100777 11:0.088574 12:-0.156765 13:0.004628 14:0.002067 15:0.636309 16:0.056851 17:-0.100146 18:0.089345 19:-0.157386 20:0.004656 21:0.003104 
0 0 0 0 0 -22.1534835571468 0 0 0 0 0 0 0 0 0 0 0 1:0.545332 2:0.053477 3:-0.099573 4:0.098063 5:-0.182591 6:0.000247 7:0.000149 8:0.53262 9:0.051667 10:-0.096592 11:0.097006 12:-0.181352 13:0.00085 14:0.000906 15:0.528144 16:0.050548 17:-0.094947 18:0.095709 19:-0.179774 20:0.001838 21:0.002011 
0 0 0 0 0 0 0 124.4285661932702 0 0 0 0 0 0 0 0 0 1:0.47245 2:0.04978 3:-0.087939 4:0.105365 5:-0.186134 6:0.000853 7:0.000271 8:0.476777 9:0.048713 10:-0.088011 11:0.102172 12:-0.184597 13:0.001921 14:0.000613 15:0.478461 16:0.046834 17:-0.087457 18:0.097884 19:-0.182789 20:0.003836 21:0.001188 
0 0 0 0 0 0 0 0 0 0 0 0 0 0 0 401.2555198172358 0 1:0.458415 2:0.037787 3:-0.083106 4:0.08243 5:-0.18129 6:0.002541 7:0.00109 8:0.457991 9:0.038 10:-0.083098 11:0.082971 12:-0.181441 13:0.00335 14:0.001595 15:0.466413 16:0.038664 17:-0.084392 18:0.082897 19:-0.180938 20:0.002921 21:0.002226 
0 0 0 0 0 0 0 0 12.4024363390231 0 0 0 0 0 0 0 0 1:0.425526 2:0.043248 3:-0.078934 4:0.101634 5:-0.185497 6:0.003289 7:0.001394 8:0.439518 9:0.043328 10:-0.081257 11:0.09858 12:-0.184878 13:0.004134 14:0.00105 15:0.454165 16:0.043349 17:-0.08357 18:0.095449 19:-0.184009 20:0.004563 21:0.001046 
0 0 0 0 0 0 0 0 0 0 0 0 0 0.7456962346542875 1.786516060400822 0 0 1:0.415437 2:0.035525 3:-0.076166 4:0.085513 5:-0.183339 6:0.001481 7:0.000642 8:0.434053 9:0.037772 10:-0.079709 11:0.087022 12:-0.183639 13:0.000934 14:0.000647 15:0.447614 16:0.039238 17:-0.082313 18:0.08766 19:-0.183893 20:0.003196 21:0.001955 
0 0 -28.64259133040012 0 0 0 0 0 0 0 0 0 0 0 0 0 0 1:0.407509 2:0.039835 3:-0.077585 4:0.097752 5:-0.190388 6:0.002219 7:0.001462 8:0.417575 9:0.039702 10:-0.078849 11:0.095078 12:-0.188825 13:0.003906 14:0.002228 15:0.430342 16:0.039601 17:-0.080453 18:0.092022 19:-0.186952 20:0.005102 21:0.002894 
0 0 0 0 -4.49778810556201 -98.09563170994309 0 0 0 0 0 0 0 0 0 0 0 1:0.446126 2:0.045708 3:-0.085634 4:0.102455 5:-0.19195 6:0.003155 7:0.000609 8:0.442511 9:0.044128 10:-0.083851 11:0.099723 12:-0.189489 13:0.002382 14:0.000841 15:0.447093 16:0.043354 17:-0.083491 18:0.09697 19:-0.186742 20:0.000686 21:0.002125 
0 -4.561117931589305 0 0 -5.748272673623303 0 -1.545971259682094 0 18.76114605887787 0.2415249730157329 0 0 0 0 0 0 5.660801364077026 1:0.404908 2:0.039624 3:-0.077135 4:0.097858 5:-0.1905 6:0.001749 7:0.001159 8:0.412649 9:0.040022 10:-0.078372 11:0.096988 12:-0.189925 13:0.000379 14:0.000267 15:0.425506 16:0.040325 17:-0.080195 18:0.09477 19:-0.188469 20:0.002621 21:0.0016 
0 0 0 0 0 0 0 0 0 0 0 0 0 0 0 471.8223382086702 0 1:0.674745 2:0.034033 3:-0.102164 4:0.050439 5:-0.151411 6:0.003081 7:0.00526 8:0.676211 9:0.035695 10:-0.104037 11:0.052786 12:-0.153853 13:0.004074 14:0.005666 15:0.671884 16:0.036996 17:-0.104365 18:0.055063 19:-0.155332 20:0.003524 21:0.004149 
0 0 0 0 0 0 0 0 0 0 0 0 0 1.340168852886133 0 0 0 1:0.685023 2:0.033291 3:-0.100976 4:0.048598 5:-0.147405 6:0.001731 7:0.000819 8:0.681194 9:0.034593 10:-0.102364 11:0.050783 12:-0.150272 13:0.001928 14:0.001429 15:0.670159 16:0.036286 17:-0.102838 18:0.054146 19:-0.153454 20:0.002332 21:0.002523 
0 0 0 0 0 0 0 0 0 0 35078.60714353652 0 0 0 0 0 0 1:0.637427 2:0.083952 3:-0.106595 4:0.131705 5:-0.167227 6:0.001009 7:0.001842 8:0.634558 9:0.0837 10:-0.106064 11:0.131903 12:-0.167146 13:0.001233 14:0.002043 15:0.62987 16:0.083442 17:-0.105703 18:0.132475 19:-0.167817 20:0.0011 21:0.001848 
0 0 0 0 0 0 0 0 0 0 52525.5859308037 0 0 0 0 0 0 1:0.596912 2:0.082407 3:-0.099079 4:0.138056 5:-0.165986 6:0.000966 7:0.001285 8:0.59801 9:0.082328 10:-0.099888 11:0.13767 12:-0.167035 13:0.002311 14:0.001454 15:0.598604 16:0.081704 17:-0.100349 18:0.13649 19:-0.167638 20:0.003647 21:0.001126 
0 0 0 0 0 0 0 0 0 0 91661.73595119228 0 0 0 0 0 0 1:0.591382 2:0.079835 3:-0.098509 4:0.134998 5:-0.166574 6:0.002242 7:0.001346 8:0.593432 9:0.080174 10:-0.098821 11:0.135102 12:-0.166524 13:0.004022 14:0.001453 15:0.595171 16:0.080295 17:-0.099806 18:0.13491 19:-0.167693 20:0.004341 21:0.000967 
0 0 0 0 0 0 0 -176.6552954903602 0 0 0 0 0 0 0 0 0 1:0.621278 2:0.079599 3:-0.10307 4:0.128121 5:-0.165899 6:0.002907 7:0.001711 8:0.617356 9:0.079486 10:-0.10287 11:0.128752 12:-0.16663 13:0.003186 14:0.002037 15:0.610838 16:0.080723 17:-0.103217 18:0.132152 19:-0.168976 20:0.000902 21:0.002786 
0 0 0 0 0 0 0 0 0 0 0 0 0 0 0 28.65023851534547 0 1:0.623823 2:0.07913 3:-0.107638 4:0.126846 5:-0.172545 6:0.001629 7:0.002446 8:0.61753 9:0.07989 10:-0.105973 11:0.12937 12:-0.171608 13:0.001736 14:0.003385 15:0.603839 16:0.080701 17:-0.103855 18:0.133646 19:-0.171991 20:0.003449 21:0.003937 
0 0 0 0 0 0 0 0 0 0 0 0 0 0 0 6.990201585793565 0 1:0.573269 2:0.075365 3:-0.097616 4:0.131466 5:-0.170279 6:0.000647 7:0.000621 8:0.561099 9:0.076169 10:-0.09635 11:0.13575 12:-0.171717 13:0.000622 14:0.001833 15:0.548039 16:0.077449 17:-0.094609 18:0.141319 19:-0.172632 20:0.001599 21:0.00224 
0 0 0 0 0 0 0 0 0 0 1270.328221806231 0 0 1.206922408767334 0.4358779615530895 0 0 1:0.511519 2:0.071973 3:-0.086578 4:0.140705 5:-0.169256 6:0.005432 7:0.001697 8:0.520474 9:0.074092 10:-0.088097 11:0.142355 12:-0.169263 13:0.006577 14:0.001764 15:0.533892 16:0.076953 17:-0.091096 18:0.144135 19:-0.170626 20:0.004013 21:0.002084 
0 0 0 0 0 0 0 0 0 0 3285.966981549329 0 0 0 0 0 0 1:0.527169 2:0.080804 3:-0.091113 4:0.153279 5:-0.172835 6:0.004874 7:0.003081 8:0.528397 9:0.078796 10:-0.090836 11:0.149123 12:-0.171909 13:0.004035 14:0.003274 15:0.537385 16:0.078029 17:-0.092748 18:0.145201 19:-0.172591 20:0.00198 21:0.003564 
0 0 0 0 0 0 0 0 0 0 3209.296684895119 0 0 0 0 0 0 1:0.589453 2:0.08106 3:-0.099674 4:0.137517 5:-0.169095 6:0.003797 7:0.00112 8:0.571332 9:0.079728 10:-0.096647 11:0.139547 12:-0.16916 13:0.005721 14:0.001953 15:0.559653 16:0.079454 17:-0.095095 18:0.141969 19:-0.169919 20:0.005849 21:0.001571 
0 0 0 0 0 0 0 -651.4697914347003 0 0 0 0 0 0 0 0 0 1:0.661156 2:0.084318 3:-0.11407 4:0.127531 5:-0.172531 6:0.001468 7:0.000978 8:0.659922 9:0.084437 10:-0.113861 11:0.12795 12:-0.172538 13:0.002009 14:0.001267 15:0.656592 16:0.085775 17:-0.113907 18:0.130637 19:-0.173482 20:0.002179 21:0.001086 
0 0 0 0 0 -86.78693662872912 0 0 0 0 0 0 0 0 0 0 0 1:0.561212 2:0.082587 3:-0.105682 4:0.147157 5:-0.188311 6:0.002283 7:0.003244 8:0.561775 9:0.082368 10:-0.104402 11:0.146622 12:-0.185844 13:0.003325 14:0.004318 15:0.559971 16:0.082127 17:-0.102778 18:0.146663 19:-0.183541 20:0.004252 21:0.004579 
0 0 0 0 0 0 0 0 2115.921466818373 0 0 0 0 0 0 0 0 1:0.40818 2:0.075133 3:-0.071815 4:0.184069 5:-0.175939 6:0.016234 7:0.003062 8:0.458463 9:0.077872 10:-0.080083 11:0.169855 12:-0.174678 13:0.012864 14:0.003082 15:0.507734 16:0.08119 17:-0.088421 18:0.159907 19:-0.174148 20:0.009692 21:0.002675 
0 -3.427404908765992 -10.51171397331985 0 0 0 0 0 0 0 0 0 0 0 0.9128748270859665 0 204.9426552844171 1:0.369555 2:0.075166 3:-0.06699 4:0.203395 5:-0.181272 6:0.026337 7:0.002636 8:0.434929 9:0.078662 10:-0.077446 11:0.180862 12:-0.178066 13:0.00655 14:0.000614 15:0.491794 16:0.082014 17:-0.086679 18:0.166765 19:-0.176251 20:0.003879 21:0.001974 
0 0 0 0 -23.42192832571894 0 0 0 0 0 0 0 0 0 0 0 0 1:0.479977 2:0.090858 3:-0.088559 4:0.189296 5:-0.184506 6:0.004949 7:0.001732 8:0.495597 9:0.090659 10:-0.090256 11:0.182928 12:-0.182117 13:0.002859 14:0.002353 15:0.510028 16:0.090167 17:-0.09163 18:0.176789 19:-0.179658 20:0.004493 21:0.002615 
0 0 -175.137158177454 0 0 0 0 0 0 0 0 0 0 0 0 0 0 1:0.948728 2:0.113072 3:-0.169356 4:0.119182 5:-0.178509 6:0.001266 7:0.001165 8:0.942376 9:0.112822 10:-0.167778 11:0.119721 12:-0.178037 13:0.002733 14:0.00191 15:0.932202 16:0.112555 17:-0.165699 18:0.120741 19:-0.17775 20:0.003649 21:0.00181 
0 0 -1.107821663147892 0 0 0 0 0 0 0 0 0 0 0 0 0 0 1:0.930015 2:0.117254 3:-0.161783 4:0.126078 5:-0.173957 6:0.00195 7:0.000188 8:0.92573 9:0.116332 10:-0.162382 11:0.125665 12:-0.175409 13:0.002448 14:0.00044 15:0.917074 16:0.115599 17:-0.162351 18:0.126052 19:-0.177031 20:0.002171 21:0.000513 
0 0 -820.2605711746438 0 0 0 0 0 0 0 0 0 0 0 0 7.651687079919203 0 1:0.931105 2:0.107182 3:-0.164208 4:0.115113 5:-0.176358 6:0.000397 7:0.000108 8:0.928149 9:0.108119 10:-0.164227 11:0.116489 12:-0.17694 13:0.000613 14:0.000545 15:0.92917 16:0.110092 17:-0.165343 18:0.118484 19:-0.177947 20:0.000491 21:0.000745 
0 0 0 0 0 0 0 -105.6356605389564 0 0 0 0 0 0 0 0 0 1:0.905526 2:0.109054 3:-0.158829 4:0.120432 5:-0.175399 6:0.00109 7:0.000296 8:0.898282 9:0.109054 10:-0.157899 11:0.121403 12:-0.175779 13:0.001185 14:0.000655 15:0.892996 16:0.109691 17:-0.157798 18:0.122835 19:-0.176706 20:0.000879 21:0.000818 
0 0 -567.2340097856016 0 0 0 0 0 0 0 0 0 0 0 0 0 0 1:0.947358 2:0.112735 3:-0.169195 4:0.118999 5:-0.178597 6:0.001216 7:0.00078 8:0.947372 9:0.112538 10:-0.169038 11:0.118789 12:-0.178428 13:0.001557 14:0.000927 15:0.937891 16:0.112658 17:-0.167494 18:0.120118 19:-0.178586 20:0.001897 21:0.000988 
0 0 0 0 0 0 0 0 0 0 763.3112081542945 0 0 0 0 0 0 1:0.907251 2:0.118352 3:-0.157932 4:0.130452 5:-0.174077 6:0.001332 7:0.000793 8:0.905907 9:0.118592 10:-0.158303 11:0.13091 12:-0.174745 13:0.002478 14:0.001689 15:0.905089 16:0.118716 17:-0.158655 18:0.131165 19:-0.175293 20:0.001701 21:0.002641 
0 0 0 0 0 0 0 0 0 0 0 0 7.171102926011669 0 0 0 0 1:0.953456 2:0.126221 3:-0.171832 4:0.132383 5:-0.18022 6:0.000257 7:4.8e-005 8:0.944763 9:0.126175 10:-0.169862 11:0.133552 12:-0.179793 13:0.000339 14:0.000188 15:0.934189 16:0.125679 17:-0.167768 18:0.134532 19:-0.179586 20:0.000184 21:0.000193 
0 0 0 0 -32.69313401809619 -8.651373614606365 0 0 0 0 0 0 0 0 0 0 0 1:0.961236 2:0.122425 3:-0.180505 4:0.127362 5:-0.187785 6:0.001049 7:0.000849 8:0.95473 9:0.121978 10:-0.178647 11:0.127761 12:-0.187118 13:0.001481 14:0.000535 15:0.946828 16:0.121382 17:-0.176107 18:0.128199 19:-0.185997 20:0.001263 21:0.000836 
-1781.456057053625 -0.004010227070511614 0 0 0 0 -0.03523282818125131 0 0 0 0 0 0 0 0 0 0 1:0.971515 2:0.120413 3:-0.176895 4:0.123943 5:-0.182082 6:0.001156 7:0.001822 8:0.960301 9:0.120364 10:-0.174573 11:0.12534 12:-0.18179 13:0.001004 14:0.001794 15:0.950133 16:0.119829 17:-0.172417 18:0.126119 19:-0.181467 20:0.000857 21:0.001265 
0 0 0 0 0 0 0 0 0 42.2185196057953 0 21.01923366040913 0 0.6252389257068146 0.4466622917691853 0 0 1:0.961184 2:0.112663 3:-0.170973 4:0.117212 5:-0.177878 6:0.000705 7:0.000239 8:0.961011 9:0.115381 10:-0.17264 11:0.120062 12:-0.179644 13:0.001404 14:0.000545 15:0.954489 16:0.117551 17:-0.172677 18:0.123156 19:-0.180911 20:0.001093 21:0.000357 
0 0 0 0 0 0 0 0 408.3176053313136 0 0 0 0 0 0 0 0 1:0.836983 2:0.11807 3:-0.149411 4:0.141067 5:-0.178511 6:0.003212 7:0.001463 8:0.867126 9:0.119292 10:-0.15491 11:0.137572 12:-0.178648 13:0.002593 14:0.001936 15:0.894284 16:0.119697 17:-0.159774 18:0.133847 19:-0.178661 20:0.000859 21:0.00202 
-2346.382182698321 0 0 0 0 0 0 0 0 0 0 0 0 0 0 0 0 1:0.951819 2:0.118818 3:-0.170142 4:0.124832 5:-0.178755 6:0.000808 7:0.000439 8:0.958264 9:0.119883 10:-0.17238 11:0.125104 12:-0.179887 13:0.000896 14:0.000802 15:0.952809 16:0.120504 17:-0.172017 18:0.126472 19:-0.180536 20:0.002014 21:0.000572 
0 0 0 0 0 0 0 0 0 0 0 0 1.555290673454115 0 0 0 0 1:0.815046 2:0.121082 3:-0.150511 4:0.148559 5:-0.184666 6:0.007815 7:0.001677 8:0.857173 9:0.122031 10:-0.157193 11:0.142364 12:-0.183386 13:0.006569 14:0.001018 15:0.886531 16:0.122144 17:-0.162194 18:0.137778 19:-0.182954 20:0.005397 21:0.001197 
0 0 0 -44.76578350890393 0 0 0 0 0 0 0 0 0 0 0 0 0 1:0.916652 2:0.122425 3:-0.161866 4:0.133557 5:-0.176584 6:0.000922 7:0.000238 8:0.893671 9:0.121126 10:-0.158591 11:0.135538 12:-0.17746 13:0.002011 14:0.000211 15:0.885868 16:0.120556 17:-0.158124 18:0.136089 19:-0.178496 20:0.003231 21:0.000393 
0 0 0 0 0 0 0 0 0 0 0 0 7.919817491972705 0 0 0 0 1:0.672146 2:0.129128 3:-0.117469 4:0.192113 5:-0.174767 6:0.000878 7:0.000594 8:0.662227 9:0.128913 10:-0.115686 11:0.194665 12:-0.174693 13:0.001537 14:0.001645 15:0.651178 16:0.128284 17:-0.11288 18:0.197004 19:-0.173347 20:0.001908 21:0.001272 
0 0 0 0 0 0 0 0 0 0 0 0 0 0 0 0 13420.55022701099 1:0.596914 2:0.126863 3:-0.102044 4:0.212532 5:-0.170953 6:0.002682 7:0.002079 8:0.597503 9:0.127345 10:-0.10192 11:0.213129 12:-0.170577 13:0.002017 14:0.002593 15:0.599924 16:0.127198 17:-0.102388 18:0.212024 19:-0.170668 20:0.000988 21:0.00173 
0 0 0 0 0 0 0 0 0 0 0 0 0.5623055769765604 0 0 0 0 1:0.633694 2:0.130778 3:-0.110188 4:0.206375 5:-0.173882 6:0.000923 7:0.000201 8:0.62633 9:0.130382 10:-0.108716 11:0.208169 12:-0.173576 13:0.001152 14:0.000914 15:0.62235 16:0.129912 17:-0.107666 18:0.208745 19:-0.172999 20:0.001551 21:0.001049 
0 0 0 0 0 0 0 0 0 0 0 0 0 0 0 0 514660.4880259407 1:0.528832 2:0.119337 3:-0.067671 4:0.225662 5:-0.127963 6:0.00457 7:0.00093 8:0.528869 9:0.119316 10:-0.067703 11:0.225605 12:-0.128015 13:0.005671 14:0.001185 15:0.527625 16:0.118712 17:-0.067308 18:0.224992 19:-0.127568 20:0.004736 21:0.000858 
0 0 0 0 0 0 0 0 13486.53680051558 0 0 0 0 0 0 0 0 1:0.514159 2:0.113279 3:-0.059556 4:0.22032 5:-0.115831 6:0.009566 7:0.004485 8:0.530063 9:0.114234 10:-0.062805 11:0.21551 12:-0.118486 13:0.009196 14:0.005264 15:0.542338 16:0.115073 17:-0.06606 18:0.212181 19:-0.121807 20:0.009599 21:0.005443 
0 0 0 0 0 0 0 0 8299.46388273461 0 0 0 0 0 0 0 0 1:0.538468 2:0.113477 3:-0.064865 4:0.21074 5:-0.120461 6:0.009458 7:0.004734 8:0.541963 9:0.114044 10:-0.06585 11:0.210427 12:-0.121502 13:0.010238 14:0.006321 15:0.550073 16:0.11523 17:-0.067898 18:0.209482 19:-0.123435 20:0.010392 21:0.00594 
0 0 0 0 0 0 0 0 7052.630764443285 0 0 0 0 0 0 0 0 1:0.591578 2:0.117599 3:-0.078491 4:0.198789 5:-0.132681 6:0.002494 7:0.000188 8:0.594427 9:0.116523 10:-0.078372 11:0.196026 12:-0.131845 13:0.005757 14:0.000622 15:0.583034 16:0.115006 17:-0.07558 18:0.197255 19:-0.129632 20:0.010106 21:0.00147 
0 0 0 0 0 0 0 0 0 0 0 0 0 0 0 0 124163.5934283134 1:0.498291 2:0.113798 3:-0.066955 4:0.228378 5:-0.134369 6:0.002768 7:0.001663 8:0.502858 9:0.112794 10:-0.066653 11:0.224305 12:-0.132549 13:0.002836 14:0.002452 15:0.508142 16:0.112073 17:-0.066489 18:0.220553 19:-0.130847 20:0.001163 21:0.001971 
-40.0917467492456 0 -24.56441916016042 0 0 0 -3.428668243272965 0 0 0 0 0 0 0 0 0 0 1:0.484538 2:0.120009 3:-0.063667 4:0.247677 5:-0.131398 6:0.004558 7:0.00289 8:0.507759 9:0.12002 10:-0.066281 11:0.236373 12:-0.130537 13:0.001723 14:0.004593 15:0.523995 16:0.118992 17:-0.067686 18:0.227087 19:-0.129173 20:0.00059 21:0.005197 
0 0 0 -98.78189117232184 0 0 0 0 15842.48033780187 0 2037.058219139091 0 0 0 0 0 0 1:0.623049 2:0.11806 3:-0.082261 4:0.189487 5:-0.132029 6:0.004139 7:0.001497 8:0.601275 9:0.115486 10:-0.078789 11:0.192068 12:-0.131037 13:0.006667 14:0.002256 15:0.585922 16:0.113748 17:-0.075877 18:0.194135 19:-0.1295 20:0.009004 21:0.002149 
0 0 0 0 0 0 0 0 0 0 0 0 0 0 0 0 33528.05565015742 1:0.51666 2:0.122819 3:-0.070069 4:0.237717 5:-0.135619 6:0.003127 7:0.001753 8:0.521599 9:0.121743 10:-0.069263 11:0.233403 12:-0.13279 13:0.003006 14:0.00334 15:0.527799 16:0.11953 17:-0.068732 18:0.226469 19:-0.130224 20:0.001345 21:0.004654 
0 0 0 0 0 0 0 0 0 0 0 0 0 0 0 0 455.9259934507321 1:0.505649 2:0.117433 3:-0.063992 4:0.232241 5:-0.126554 6:0.003917 7:0.004267 8:0.519781 9:0.118707 10:-0.066537 11:0.22838 12:-0.12801 13:0.002235 14:0.003924 15:0.527374 16:0.118429 17:-0.06806 18:0.224564 19:-0.129054 20:0.001821 21:0.003782 
0 0 0 0 0 0 0 0 458.0543033464232 0 0 0 0 0 0 0 0 1:0.606152 2:0.114297 3:-0.078766 4:0.188561 5:-0.129944 6:0.002299 7:0.002534 8:0.595659 9:0.113371 10:-0.077173 11:0.190329 12:-0.12956 13:0.006298 14:0.003553 15:0.583975 16:0.112814 17:-0.07526 18:0.193184 19:-0.128876 20:0.008156 21:0.003209 
0 0 0 0 0 0 0 0 0 0 10951.78805813325 0 0 0 0 0 0 1:0.575404 2:0.106369 3:-0.071694 4:0.184859 5:-0.124598 6:0.002819 7:0.002607 8:0.578539 9:0.1085 10:-0.072417 11:0.187541 12:-0.125172 13:0.003822 14:0.004762 15:0.574956 16:0.110914 17:-0.073081 18:0.192909 19:-0.127107 20:0.006738 21:0.003777 
0 0 0 0 0 0 0 0 0 0 5767.892734270579 0 0 0 0 0 0 1:0.577129 2:0.104935 3:-0.070362 4:0.181822 5:-0.121918 6:0.002097 7:0.002473 8:0.571933 9:0.106963 10:-0.070279 11:0.187021 12:-0.122881 13:0.001874 14:0.004397 15:0.568957 16:0.110237 17:-0.071903 18:0.193752 19:-0.126377 20:0.007034 21:0.003027 
0 0 0 0 0 0 0 0 0 0 0 0 0 0 0 0 51654.30120174799 1:0.56149 2:0.117867 3:-0.074463 4:0.209918 5:-0.132618 6:0.003264 7:0.00098 8:0.557364 9:0.118301 10:-0.075417 11:0.21225 12:-0.13531 13:0.003719 14:0.003351 15:0.541799 16:0.118479 17:-0.075826 18:0.218677 19:-0.139953 20:0.004135 21:0.011282 
0 0 0 0 0 0 0 0 0 0 0 0 0 0 0 0 36781.83387209037 1:0.542056 2:0.117467 3:-0.071496 4:0.216707 5:-0.131898 6:0.00475 7:0.000872 8:0.543625 9:0.118355 10:-0.073282 11:0.217714 12:-0.134802 13:0.003639 14:0.003507 15:0.537229 16:0.11859 17:-0.074964 18:0.220744 19:-0.139539 20:0.003388 21:0.011671 
0 0 0 0 0 0 0 0 -168.1450714730499 0 0 0 0 0 0 0 0 1:0.549961 2:0.103286 3:-0.068515 4:0.187806 5:-0.124582 6:0.001508 7:0.001508 8:0.548396 9:0.101842 10:-0.066945 11:0.18571 12:-0.122074 13:0.000428 14:0.002202 15:0.543048 16:0.099585 17:-0.06483 18:0.183382 19:-0.119382 20:0.001184 21:0.002634 
0 0 0 0 -0.9658603368109305 -4.385648960417906 0 0 0 0 0 0 0 0 0 0 0 1:0.631897 2:0.121392 3:-0.083238 4:0.192107 5:-0.131727 6:0.004913 7:0.001149 8:0.632468 9:0.118093 10:-0.082287 11:0.186717 12:-0.130105 13:0.00581 14:0.003323 15:0.627117 16:0.114318 17:-0.080298 18:0.182291 19:-0.128043 20:0.004972 21:0.00589 
0 0 0 0 0 0 0 0 -17516.76322956092 0 0 0 0 0 0 0 0 1:0.61748 2:0.11874 3:-0.079683 4:0.192298 5:-0.129045 6:0.003563 7:0.002148 8:0.617636 9:0.116275 10:-0.079282 11:0.188258 12:-0.128364 13:0.003674 14:0.004167 15:0.616177 16:0.113553 17:-0.078435 18:0.184286 19:-0.127294 20:0.002501 21:0.006373 
0 0 0 0 0 0 0 0 0 0 89.8593509014259 0 0 0 0 0 0 1:0.460352 2:0.050197 3:-0.060694 4:0.109041 5:-0.131843 6:0.002578 7:0.000837 8:0.457072 9:0.049838 10:-0.060438 11:0.109038 12:-0.132228 13:0.005799 14:0.00182 15:0.450242 16:0.049033 17:-0.058824 18:0.108903 19:-0.130649 20:0.010727 21:0.003665 
0 0 0 0 0 0 0 0 0 0 0 0 0 0.7213640230607866 0 90.92543675405423 0 1:0.39656 2:0.036441 3:-0.053198 4:0.091893 5:-0.134149 6:0.000635 7:0.005418 8:0.388596 9:0.039178 10:-0.053197 11:0.10082 12:-0.136895 13:0.003662 14:0.008083 15:0.379332 16:0.040952 17:-0.052835 18:0.107958 19:-0.139284 20:0.009044 21:0.007066 
0 0 0 0 0 0 0 -15.57377608220257 0 0 0 0 0 0 0 5.556539487551776 0 1:0.391862 2:0.040765 3:-0.05686 4:0.10403 5:-0.145103 6:0.010172 7:0.004148 8:0.381424 9:0.040317 10:-0.055218 11:0.105701 12:-0.144768 13:0.011062 14:0.006555 15:0.370218 16:0.04027 17:-0.052935 18:0.108774 19:-0.142982 20:0.010954 21:0.005536 
0 0 0 0 0 -16.26276939031141 0 0 0 0 0 0 0 0 0 0 0 1:0.374658 2:0.04254 3:-0.055473 4:0.113545 5:-0.148064 6:0.008641 7:0.000572 8:0.365704 9:0.041369 10:-0.054357 11:0.113121 12:-0.148637 13:0.012616 14:0.00121 15:0.359238 16:0.03917 17:-0.052167 18:0.109036 19:-0.145216 20:0.012084 21:0.002258 
0 0 0 0 0 0 0 0 0 0 0 0 0 0.5588631374853137 1.874374283585941 0 0 1:0.350499 2:0.035513 3:-0.046108 4:0.101321 5:-0.131549 6:0.006323 7:0.001871 8:0.347087 9:0.035573 10:-0.046855 11:0.10249 12:-0.134994 13:0.011667 14:0.002479 15:0.349308 16:0.037095 17:-0.048203 18:0.106196 19:-0.137995 20:0.017806 21:0.001774 
0 -7.587959617792857 0 0 0 0 0 0 0 0 0 0 0 0 0 0 0 1:0.310414 2:0.038192 3:-0.043746 4:0.123035 5:-0.140928 6:0.008235 7:0.005154 8:0.323387 9:0.038413 10:-0.045843 11:0.118782 12:-0.141759 13:0.015634 14:0.007918 15:0.337803 16:0.038898 17:-0.047593 18:0.115149 19:-0.140891 20:0.019102 21:0.004548 
0 0 0 0 0 0 0 0 0 0 0 0 0 0 0 0 1048576 1:0.618919 2:0.152829 3:-0.067319 4:0.246929 5:-0.108769 6:0.00976 7:0.005884 8:0.613701 9:0.151392 10:-0.066278 11:0.246686 12:-0.107997 13:0.009899 14:0.00448 15:0.602152 16:0.151592 17:-0.063917 18:0.25175 19:-0.106147 20:0.012978 21:0.001792 
0 0 0 0 0 0 0 0 -4324.838634788954 0 0 0 0 0 0 0 100410.2168150244 1:0.623662 2:0.150315 3:-0.068584 4:0.24102 5:-0.109969 6:0.009465 7:0.00625 8:0.612196 9:0.149949 10:-0.066455 11:0.244936 12:-0.108552 13:0.010345 14:0.004764 15:0.598469 16:0.150602 17:-0.063595 18:0.251645 19:-0.106263 20:0.015188 21:0.001963 
0 0 0 0 0 0 0 0 -22.75451930436696 0 0 0 0 0 0 0 0 1:0.623558 2:0.1489 3:-0.069448 4:0.238791 5:-0.111374 6:0.008598 7:0.006049 8:0.608648 9:0.148981 10:-0.066395 11:0.244774 12:-0.109086 13:0.011277 14:0.004941 15:0.594196 16:0.149883 17:-0.063105 18:0.252246 19:-0.106202 20:0.017477 21:0.002432 
-23.3164101520943 0 0 0 0 0 0 0 0 0 0 0 1.036245178667199 0 0 0 0 1:0.626086 2:0.173345 3:-0.068554 4:0.276872 5:-0.109497 6:0.009883 7:0.002934 8:0.622403 9:0.171551 10:-0.0668 11:0.275627 12:-0.107325 13:0.015644 14:0.002196 15:0.615392 16:0.16881 17:-0.066725 18:0.274312 19:-0.108428 20:0.01925 21:0.00806 
0 0 -843.609040028766 -1364.149073037441 0 0 0 0 0 0 0 0 0 0 0 0 0 1:0.623841 2:0.172507 3:-0.065165 4:0.276524 5:-0.104458 6:0.009755 7:0.004073 8:0.62132 9:0.172024 10:-0.065739 11:0.276869 12:-0.105806 13:0.016978 14:0.003431 15:0.61748 16:0.169813 17:-0.067053 18:0.27501 19:-0.108591 20:0.01976 21:0.008956 
0 0 0 -36.88501443850861 0 0 0 0 0 0 0 0 0 0 0 0 0 1:0.698562 2:0.152926 3:-0.068123 4:0.218915 5:-0.097519 6:0.007311 7:0.000487 8:0.68497 9:0.154218 10:-0.065456 11:0.225145 12:-0.09556 13:0.007978 14:0.000585 15:0.661502 16:0.153405 17:-0.063202 18:0.231904 19:-0.095543 20:0.00944 21:0.001346 
0 0 0 0 0 0 0 0 0 0 0 0 0 0 0 0 320763.7315894502 1:0.682234 2:0.156112 3:-0.070318 4:0.228824 5:-0.10307 6:0.009034 7:0.003171 8:0.676439 9:0.157995 10:-0.070723 11:0.233569 12:-0.104552 13:0.005474 14:0.005315 15:0.654746 16:0.156418 17:-0.067881 18:0.238898 19:-0.103675 20:0.003475 21:0.005326 
0 0 0 -3899.320751545823 0 0 0 0 0 0 0 0 0 0 0 0 0 1:0.700609 2:0.151702 3:-0.067944 4:0.216529 5:-0.096979 6:0.005455 7:0.001496 8:0.687709 9:0.153052 10:-0.065564 11:0.222553 12:-0.095337 13:0.006141 14:0.000691 15:0.665322 16:0.15289 17:-0.063558 18:0.229799 19:-0.095529 20:0.00636 21:0.001201 
0 0 0 0 0 0 0 0 0 0 0 0 0 0 0 0 57925.20512613501 1:0.683542 2:0.152816 3:-0.06836 4:0.223564 5:-0.100009 6:0.001143 7:0.002177 8:0.672658 9:0.155619 10:-0.068425 11:0.231349 12:-0.101724 13:0.000776 14:0.004305 15:0.653952 16:0.156094 17:-0.066737 18:0.238693 19:-0.102052 20:0.004335 21:0.005818 
0 0 0 0 0 0 -2.621004547920166 0 0 0 0 0 0 0 0 0 0 1:0.586259 2:0.166968 3:-0.058867 4:0.284802 5:-0.100412 6:0.01145 7:0.000346 8:0.600508 9:0.167955 10:-0.061799 11:0.279689 12:-0.102912 13:0.015676 14:0.003788 15:0.622871 16:0.169181 17:-0.068298 18:0.271614 19:-0.10965 20:0.019477 21:0.014019 
